2080 50
AAATTT 0.034256 -0.2887 -0.32575 0.88041 0.027206 0.073933 0.67885 1.0397 0.15161 0.19544 0.82675 -0.34812 -0.50867 -0.23417 0.098113 -0.24595 0.5354 -0.058446 0.36933 -0.62096 -0.40325 0.1712 -0.37467 -0.45143 0.02846 -0.012565 0.6488 -0.26141 0.54721 0.12207 0.55248 0.22683 0.10896 -0.24464 -0.40265 0.29205 0.16592 -0.17652 0.29189 -0.28678 0.10132 0.30737 0.42341 0.7232 -0.57535 0.47867 0.49505 0.534 0.77966 0.70252 
AATATT -0.16596 -0.20779 -0.13143 0.54028 -0.12061 0.48331 -0.38933 0.30915 -0.42988 0.29188 -0.42334 -0.022622 -0.73947 0.59666 -0.45572 -0.46536 0.85884 -0.49985 -0.085976 -0.65051 -0.39943 -0.51594 0.58038 0.19147 0.012411 0.51765 -0.45881 -0.75503 0.18544 0.18937 0.67772 0.036279 0.023181 0.33979 -0.070928 0.86851 -0.69357 -0.26007 -0.077263 -0.057774 -0.093531 -0.3101 0.60563 -0.24353 -0.25828 0.18808 -0.77012 0.90052 0.008199 -0.27122 
AACGTT 0.3818 0.25293 -0.63134 -0.22423 -0.1973 0.53792 -0.79422 0.68406 0.096395 0.6608 -0.044679 -0.46186 -0.30371 0.88246 -0.61764 0.74309 -0.86721 0.011094 -0.17549 -0.070119 0.65536 0.12424 0.50874 0.135 -0.12921 -0.029095 0.19814 -0.19765 0.97533 0.14653 0.23909 -0.059457 0.067458 0.060848 -0.10114 0.64146 -0.34643 0.25561 -0.42762 -0.3774 0.58282 0.21349 -0.34148 1.1456 -1.0544 -0.40384 -0.16048 1.262 -0.48248 -0.15742 
AAGCTT -0.077731 0.64635 0.059452 -0.060585 -0.5556 0.80254 -0.15605 -0.0057784 -0.2151 0.38254 0.68157 -0.063258 -0.20768 -0.32939 -0.69301 0.25115 0.28212 -0.48591 -0.42397 -0.20702 -0.57628 0.089369 0.74243 -0.7271 -0.36002 -0.61957 1.1187 -0.12914 0.20368 -0.11864 -0.59232 -0.65839 0.13291 0.75568 -0.95503 0.94373 -0.42946 -0.74717 0.2806 0.05337 -0.090015 -0.17201 -0.06413 -0.090317 -0.92234 0.22949 0.51127 0.33815 0.037227 -0.13595 
AAAATT -0.22824 0.429 -0.53359 0.67473 -0.00076495 -0.27674 -0.69172 -0.075842 0.29467 0.4331 0.3664 -0.46115 0.15718 0.31623 -0.69522 -0.069234 0.49277 -0.15487 -0.26206 0.020009 -0.60883 -0.50062 -0.0057631 0.69965 0.41147 0.14002 -0.5476 -0.27895 0.3618 -0.011177 0.020021 -0.10937 -0.3854 -0.27606 -0.011574 0.14875 -0.71272 0.52886 1.0007 0.99581 -0.11468 -0.56132 -0.54054 0.34744 -0.9451 -0.57365 -0.42254 0.16143 0.82625 0.088317 
AACCTT -0.5313 -0.23522 -0.50552 0.39846 0.1177 0.64885 0.34864 0.25207 0.37796 0.029916 -0.34788 0.18283 -0.25082 0.28315 -0.7475 -0.011542 -0.26419 -0.26749 -0.12534 -0.19538 -0.037292 -0.42344 1.3775 0.9807 0.29342 0.35925 0.31471 0.25158 -0.49727 -0.06783 0.045938 -0.49127 -0.5205 -0.53917 -0.21188 0.22679 0.49121 0.026899 -0.14874 -0.19074 0.15223 -0.73236 -0.33083 0.48045 -0.49876 -0.44647 0.010628 0.6495 0.43645 -0.72134 
AAACTT 0.00066306 0.018529 -0.012249 -0.0068183 0.0016269 0.015992 -0.011938 -0.00084009 0.012129 0.012943 -0.0084304 0.017872 -0.014478 0.0086866 0.010678 -0.011207 -0.013549 -0.015532 0.015553 0.0060682 0.016817 0.01717 -0.00057751 0.0027586 -0.014143 0.0095559 0.015673 -0.0046435 -0.018459 -0.0099071 0.013232 0.010618 -0.0011793 0.016941 -0.0038189 0.015681 0.0043235 -0.0080143 -0.0035056 0.0085129 0.0043118 -0.00081166 -0.0078703 -0.013558 -0.0016743 -0.008834 0.014581 -0.0024237 0.0091191 0.013111 
AACATT -0.01895 -0.011789 0.0029462 -0.013469 -0.0037878 -0.010572 -0.00059015 0.0054993 0.0087875 0.0013603 -0.016351 0.0053093 0.0062093 -0.016745 -0.013851 0.0046942 0.0014191 -0.010656 -0.0027729 -0.0082557 0.017295 0.0051862 0.0011051 0.0080896 -0.00022678 0.016799 0.0095179 0.018528 0.01327 -0.015289 0.0020908 0.0063145 0.016139 0.010634 0.019183 2.9532e-05 -0.0024136 0.015091 -0.018505 -0.017671 0.0023313 -0.012006 0.0018601 0.0062747 -0.012172 -0.0079613 0.00074459 0.0087059 -0.0048253 0.0046192 
AAAGTT -0.0085744 0.0098983 0.0004779 0.00307 0.018837 0.018539 0.009033 -0.018867 0.010786 0.0085209 -0.00078843 -0.0094369 -0.0095027 0.0053853 0.017535 0.0016133 0.0056409 -0.0044837 -0.011608 0.017961 0.016551 -0.0059779 -0.0089783 -0.018435 0.0059516 0.0076228 0.018505 0.0073302 0.014675 0.013903 0.010803 -0.017703 -0.015825 -0.0036143 0.0019246 0.014039 -0.018153 0.018645 0.011552 0.0014759 -0.007486 -0.0049096 0.015177 0.018784 0.0093894 -0.019956 -0.001729 0.01754 -0.0038663 -0.0061398 
AAGATT -0.010296 0.010578 0.0087156 0.00066421 0.018883 0.014599 -0.010319 0.010107 -0.019031 0.018432 0.0059414 0.0035397 -0.0088133 -0.0023705 0.014542 0.010737 -0.0091497 -0.017636 -0.011336 0.008318 -0.0082686 -0.0018785 -0.014799 0.013935 -0.0099316 -0.0084132 -0.013734 -0.019501 0.009102 -0.0049084 -0.015643 0.0038988 0.0015065 0.0068051 -0.0013654 -0.0060295 0.0050449 0.011085 -0.0090551 0.014929 0.011211 0.0015325 0.018052 -0.0011589 0.0046649 0.015299 -0.00089781 -0.017607 -0.012724 -0.012006 
ATATAT 0.63436 -0.4891 -0.057575 0.50876 -0.19647 -0.88892 -0.4669 0.21618 -1.1771 0.87812 0.93158 0.60057 -0.016212 -0.35359 -0.1068 -0.13161 0.16958 -0.33913 -0.022538 -0.34085 0.05281 -0.41536 -0.053246 0.39306 0.03756 -0.37901 0.002432 0.091188 -0.32626 0.2579 0.43577 0.15388 0.76899 0.17642 0.29909 0.34527 0.16993 -0.14595 0.21465 0.50928 0.0037724 -0.093673 -0.58234 -0.15737 0.052925 0.089669 -0.10239 -0.31554 -0.019498 -0.28913 
ATTAAT -0.39132 -0.60229 -0.65121 0.45383 -0.16417 -0.1887 0.36406 -0.14423 0.292 0.68461 -0.13027 0.38769 -0.046075 0.32763 -0.20585 0.33674 -0.31486 -0.35504 0.032551 0.23558 -1.4528 -1.0953 0.56174 0.85923 0.0059223 0.44758 0.69229 -0.21329 -0.2115 -0.63003 -0.20181 0.48637 -0.47044 0.36122 -0.13185 -0.9456 -0.45424 0.44646 -0.25354 0.75443 1.0366 -0.67357 0.050494 0.088253 -0.22701 -0.76546 -0.0083255 -1.1731 -0.17314 -0.38977 
ATCGAT 0.37416 0.011456 -0.43188 0.15786 -0.46505 -0.091389 -0.49041 -0.34367 -0.055407 0.52341 0.74471 0.54631 -0.82033 -0.14334 -0.067684 -0.28615 -0.78041 -0.44089 0.35425 -0.11965 -0.36365 -0.0622 0.10256 0.66302 -0.21132 -0.12101 0.45759 0.59384 -0.17934 0.30601 -0.20277 0.77778 1.0074 0.3709 -0.50401 -0.17108 0.10266 -0.76637 -0.16545 0.036714 0.1779 -0.029742 0.3666 0.73703 -0.24391 0.38872 -0.70654 -0.38821 0.22115 -0.18972 
ATGCAT 0.27934 -0.29914 -0.094992 -0.12485 -0.16538 0.045835 -0.65268 -0.89425 -0.18704 1.25 -0.47071 -0.11101 -1.1642 -0.93687 0.081598 -0.40292 -0.58545 -0.03661 -0.26119 -0.69801 -0.51138 -0.45328 -0.062493 0.75149 0.070456 0.4912 0.23607 0.0547 -0.91567 0.76451 0.78037 -1.0513 -0.35115 -0.54662 -0.30965 1.1673 -0.25302 -0.55951 0.18874 -0.35471 0.36796 -0.083273 0.38052 0.19542 0.46343 0.62918 -0.45483 -0.66613 -0.3736 0.44988 
ATAAAT 0.38282 -0.44622 0.20512 -0.19961 0.64437 -0.56282 -0.52445 0.31134 -0.3616 0.79556 0.75438 -0.41306 0.030586 -0.40494 -0.27828 0.5059 0.33783 0.72926 0.054137 -0.94567 -0.11751 0.025504 0.18812 0.31089 0.15503 0.099701 0.45952 -0.070896 0.45653 0.44574 0.57548 -0.72345 0.33394 0.2735 -0.042066 0.37238 0.32549 0.02879 -0.17984 0.11392 0.49661 -0.60372 0.63871 0.892 0.31278 0.55397 0.1141 0.14729 -0.62617 0.07664 
ATCCAT -0.15576 -0.42913 -0.23208 -0.36908 0.18942 0.75001 -0.56821 0.33877 0.069678 0.54491 0.17293 0.070138 -0.25603 -0.71003 0.48836 -0.14592 0.48586 0.33817 0.071239 -0.42738 0.25606 -0.58768 -0.57391 0.56183 0.24805 0.31011 -0.35523 -0.20617 -0.046074 0.20115 -0.15757 -0.8042 -0.34593 0.16398 -0.75035 0.57796 -0.42144 0.14046 0.3187 -0.18859 -0.15922 -0.047665 0.22008 -0.31802 -0.55504 -0.88972 0.20901 0.08406 -0.50934 0.71616 
ATACAT 0.0121 -0.011062 0.016809 -0.0071462 0.014694 -0.019627 -0.0038893 0.005377 -0.016935 -0.0071104 -0.017455 -0.0052775 -0.007903 0.019577 0.0082702 -0.013882 0.0030885 0.01032 0.016921 -0.0014664 -0.017475 -0.0054863 0.0068579 -0.011828 -0.00076223 -0.0069897 0.018171 -0.018121 0.017601 0.010495 0.0037118 0.019578 0.0098418 -0.0045009 -0.013941 0.0049459 0.017253 0.008091 0.0032273 0.01922 -0.016929 -0.019272 0.019127 0.014134 0.014949 -0.01602 0.0074857 0.010306 -0.0060801 0.019787 
ATCAAT -0.0072902 0.0093609 -0.013027 0.014775 -0.0033238 0.014546 -0.0016571 -0.018512 -0.0084177 0.01013 -0.0053858 0.0031282 0.012079 0.019753 -0.0053094 -0.013635 0.017397 -0.0092895 -0.0097387 -0.0066984 0.0070304 -0.017668 0.0044031 0.01672 0.018447 0.014843 -0.012902 0.012122 0.016984 0.019141 -0.0031612 -0.0061411 -0.0037849 -0.015317 0.017697 0.013748 0.01043 0.0048351 0.00052073 0.0044616 -0.0024424 -0.0097011 0.016981 0.012587 -0.0093711 -0.0045777 -0.0049348 0.018911 0.01512 -0.0071546 
ATAGAT -0.01408 -0.0015191 0.0036846 0.013929 -0.0031597 0.013933 0.0092791 0.0019601 -0.0083495 -0.013857 -0.014173 -0.0098128 0.013061 -0.019095 -0.015106 -0.012241 -0.008096 -0.019766 0.0050498 -0.0075967 -0.0089341 -0.0058136 0.0048171 -0.0082061 -0.017297 -0.00050065 0.014041 -0.01547 0.011122 -0.013714 0.0051931 -0.014162 0.0088441 -0.010823 -0.0083137 -0.0033266 -0.011104 0.016994 0.0014126 0.0004229 0.0063405 0.013161 -0.0042947 0.007646 -0.0022656 0.00082222 0.0095167 -0.0041896 -0.0015672 -0.0033244 
ATGAAT -0.0021251 -0.015999 0.0029724 -0.0041906 0.011078 0.00899 0.0065328 0.018298 0.01927 0.011225 -0.0095465 0.0048607 -8.5805e-05 0.0094333 -0.0074271 -0.013764 -0.0060958 0.018179 -0.0072451 0.0091778 0.0073313 -0.010385 0.003244 0.011938 0.0002942 0.011642 -0.0062651 0.0022942 0.01329 -0.002804 0.01719 -0.012325 0.011225 -0.018605 -0.013492 0.0034978 -0.019959 0.0099189 -0.002721 -9.4953e-05 0.0047919 0.01533 0.019658 -0.010236 -0.018343 -0.0063217 -0.01722 0.002197 -0.009671 -0.019686 
ACATGT 0.38348 0.021325 -0.92534 -0.20881 -0.63313 0.057119 0.044399 -0.63389 0.34443 0.50673 0.22151 -0.15858 -0.35165 -0.32905 -0.50109 -0.38044 0.23084 -0.17286 0.18318 0.34735 -0.13479 0.49154 0.00060442 0.057831 0.23286 0.28509 0.13988 -0.84772 0.7375 0.18897 -0.084205 -0.43779 -0.35837 0.72338 -0.32944 0.082112 0.0057311 -0.55913 -0.42905 0.032459 0.64508 -0.89359 -0.82425 -0.35605 -0.027656 -0.13825 0.018069 -0.069992 -0.57971 -0.42814 
ACTAGT -0.55832 0.25349 -0.23442 -0.75582 -0.71219 0.29718 -0.12617 -0.60687 0.31424 -0.06074 -0.090575 -1.3068 0.61705 -0.30861 0.079008 0.55977 -0.40238 -0.45953 0.35096 -0.14167 -0.36458 -0.17717 0.33683 0.49673 -0.63312 0.23746 0.57129 -0.72746 -0.4686 -1.1876 0.97904 -0.099984 0.24534 0.46158 0.10428 -0.23942 -0.17776 -0.83437 0.28077 0.26762 0.3056 -0.26793 0.012011 -0.092307 -1.0825 -0.28281 0.31092 0.99605 -0.92436 -0.79175 
ACCGGT 0.049419 0.0012641 0.25907 -0.54016 0.4141 0.60791 -0.66298 -0.79743 0.29056 0.085227 0.30675 0.12229 -0.17728 -0.40596 -0.73744 0.87591 -0.43136 0.04702 -0.31752 0.67904 -0.0773 0.0089654 0.73841 0.04828 -0.49486 0.16927 0.15385 0.11058 -0.72568 -0.36091 -0.62814 -0.17688 -0.18175 -0.61863 0.75255 0.2221 -0.85359 1.3525 0.27624 -0.027282 -0.32358 -0.67107 -1.0473 -0.31345 0.50995 -0.58079 -0.5436 -0.059041 0.29399 -0.71475 
ACGCGT -0.28348 -0.045521 0.45473 -1.0064 0.65167 -0.14233 -0.47855 -0.30605 -0.29519 -0.20157 0.65796 0.086175 -0.61349 -0.59417 -0.4634 0.34005 -0.78225 0.19161 1.3847 0.2385 -1.2698 -0.46376 0.20444 1.0437 1.1819 0.5041 0.34342 0.050241 -0.15884 -0.15376 -0.47958 -0.71853 0.013525 -0.08481 -0.68235 0.3876 0.38941 0.7949 0.11838 0.33596 -1.0214 -0.22491 -0.35095 -0.28462 -0.39402 0.31245 0.0055912 -0.31243 0.075351 -0.30699 
ACAAGT -1.1029 -0.017267 0.62053 -0.62659 -0.16936 0.94667 0.13368 0.5624 -0.40253 0.27339 -0.3231 0.50208 -0.5706 -0.6599 -0.13128 0.59032 0.098442 0.28755 0.05782 -0.28694 -0.71679 0.25387 0.28144 0.29579 -0.57421 0.062436 -0.27988 0.39161 -0.73146 -0.18706 -0.49427 -0.62641 -0.10149 -0.082961 0.96794 0.30525 0.099862 0.40222 0.72177 -0.45063 0.05409 -0.36097 -0.29892 0.69209 -0.1097 -0.73852 0.037795 -0.038028 -0.25867 0.13738 
ACCCGT -0.81941 0.083037 -0.63547 -0.8106 0.90862 0.025635 -0.2385 0.34039 -0.39928 0.50156 -0.43477 0.080856 -0.32863 -0.3824 -0.89475 -0.00079744 -0.35605 0.31754 -0.64185 -0.086209 0.012769 0.55815 0.098122 -0.18875 -0.36329 0.12016 0.6693 -0.29959 0.54465 -0.73206 -0.49586 -0.17757 -0.25714 0.20374 0.55797 -0.73041 0.42446 0.77009 0.58385 0.057382 -0.64659 -0.0118 1.2108 0.1072 -0.51766 -0.30697 0.62184 0.56001 -0.17037 -0.40868 
ACACGT 0.0069255 -0.0071716 0.010803 0.014094 -0.010786 0.011865 0.0069388 -0.011936 0.016221 0.0049783 0.0048892 0.0096191 -0.017318 0.010325 -0.0053376 0.012273 0.01075 0.016567 -0.019212 -0.0065088 -0.0058872 -0.0087007 -0.0096338 0.0024523 0.010598 0.0071767 0.016379 0.010136 0.013557 0.0030933 0.011832 0.00088185 -0.0051016 -0.0099442 0.015857 0.014561 -0.01646 -0.017652 0.0092017 -0.00698 0.017016 0.0032355 -0.001769 0.0096029 0.01235 -0.011073 -0.017818 0.0022053 0.0080056 -0.0069083 
ACCAGT -0.0013205 0.01497 -0.017481 0.0079205 -0.0191 -0.0049169 -0.01442 0.008408 -0.019993 0.0090624 -0.017572 -0.0099912 0.005502 0.019726 -0.0044452 -0.011131 -0.009708 0.001626 0.0096414 -0.0057086 -0.018543 0.012104 0.0090364 -0.0015897 -0.010231 -0.015243 0.016257 -0.018244 -0.01344 -0.0034981 0.010851 0.0087304 -0.015748 0.013989 -0.0045512 0.014241 0.015009 -0.015649 -0.0059292 0.010918 -0.013484 0.010024 0.0098778 -0.012706 -0.0040679 0.0029099 -0.0046503 -0.0044962 0.019218 -0.0063236 
ACAGGT 0.0039366 -0.016995 0.0046444 0.015423 0.012429 -0.019199 0.0048585 -0.0072598 0.0036755 0.0069529 -0.0086432 0.017733 -0.019297 -0.0074686 -0.0097837 -0.0054668 -0.0005556 0.01621 -0.010101 0.019868 -0.01326 0.012363 0.001905 -0.012736 0.0040906 0.010229 0.014905 -0.019281 0.011778 0.009953 -0.0087775 0.015519 -0.015977 -0.013748 0.018019 -0.0098508 0.00081001 0.010544 -0.011609 -0.017895 -0.013703 0.012536 -0.0097913 -0.0005956 -0.003544 -0.0021742 0.019318 -0.01121 0.017291 0.0057884 
ACGAGT -0.015144 0.013498 -0.0062858 -0.0035476 -0.01196 -0.012795 0.00051886 -0.0056968 0.0050911 0.0088068 -0.01354 0.0050719 -0.019042 0.013254 0.017694 -0.013587 -0.00069288 0.0013886 -0.0038686 0.0062028 -0.016416 -0.0056029 0.0084603 -0.019114 -0.018062 0.018508 0.016812 0.015869 -0.0075758 0.017162 0.010542 -0.016213 -0.0028426 0.016007 -0.0047205 -0.0094117 0.011259 0.0041141 -0.0064946 -0.017726 0.016446 0.0065672 -0.010605 0.0080599 -0.016053 -0.018607 -0.0059201 0.0017133 0.0028619 -0.0020176 
AGATCT -0.22192 -0.74566 -0.042312 -0.24858 -0.034847 0.13161 -0.82911 1.0005 -0.14581 0.0033417 -0.80341 0.13833 1.2427 -0.47404 0.16545 0.47583 -0.15363 -0.40304 0.40365 -0.23474 0.12878 0.22847 0.22474 -0.0044517 0.4145 -0.14546 0.11823 -0.35091 0.35855 1.2166 0.10419 0.29351 -0.43801 0.087039 -0.60875 -0.53444 0.37142 0.042311 -0.060741 -0.77713 -0.73785 0.28978 -0.20412 0.33197 -0.4001 -0.18438 0.094048 -0.35747 0.38797 0.10834 
AGTACT 0.56698 -0.10462 0.10383 -0.13714 0.31394 -0.28463 -0.16542 -0.048862 0.070991 -0.71849 0.62472 -0.22904 0.48745 -1.2141 0.0067117 0.54718 -0.69067 -0.39799 0.29279 -0.62897 -0.36584 0.42901 0.37849 -0.3843 -0.99478 -0.2238 -1.3289 -0.37988 -0.095006 0.3598 -0.49957 0.7716 -0.38474 -0.19074 -0.28859 0.24327 -0.19757 -0.068726 -0.53558 -0.9294 0.48659 -0.72635 0.18595 -0.37217 -0.51673 -1.054 0.193 0.61144 0.23666 1.1187 
AGCGCT 0.2911 -0.48369 0.024944 -0.24451 -0.043243 -0.45668 -0.31982 0.45831 -0.15212 -0.27343 -0.091206 -0.0031639 -0.5396 -0.013097 -0.69817 0.52586 0.66616 -0.52687 0.35552 -0.09917 0.14652 -0.14145 0.46797 -0.037464 1.0845 -0.65514 0.64764 -0.21995 -0.85052 0.97965 0.41555 0.21267 -0.070213 0.77102 0.7644 -0.027351 -1.1395 -0.4627 0.63226 -0.20634 0.19325 1.6576 -0.61553 1.4453 -0.02456 0.20768 -0.81882 0.21505 0.38302 -0.5082 
AGGCCT -0.15447 -0.55069 0.21331 -0.23702 0.30952 -0.17273 -0.53556 -0.2855 -0.029371 0.13324 0.22572 0.95968 -0.77104 0.63565 -0.65967 0.35016 0.21089 0.51806 0.56051 0.1032 0.29251 0.35927 -0.13445 -0.13623 0.31437 0.076357 0.11007 -0.28609 -0.25343 0.82984 0.54162 -0.0043057 -0.23173 0.42164 -1.3546 0.14827 0.0039456 -0.14366 -0.57854 0.14865 0.64314 -1.2181 -0.7563 0.89679 -0.17437 0.016079 0.078208 0.63379 -0.40929 -0.22724 
AGAACT -0.64205 -0.46241 0.2291 0.32462 -0.4814 0.37521 -0.56076 0.62755 0.10619 0.22118 -0.82057 -0.43078 -0.36898 0.3964 0.15474 -0.7177 0.70775 -1.2965 0.085597 -1.0312 0.047826 0.79389 -0.066985 -0.16281 0.77262 0.01143 -0.17943 0.11392 0.86116 -0.26011 0.33747 0.21021 -0.30096 0.43037 -0.9276 0.53036 -0.61043 0.76161 -1.0631 -0.90295 0.35008 -0.69359 -0.23006 0.28669 -0.39838 0.79094 -0.14003 -0.068519 -0.27682 0.92288 
AGCCCT -0.98967 -0.69657 -1.0141 -0.21863 -0.45516 0.62741 -0.74722 0.65125 -0.19296 -0.1798 -0.28741 0.55497 1.0861 0.41217 -0.18114 -0.37438 0.088824 -0.7303 -0.58986 0.10939 0.17593 0.6592 -0.67884 0.26937 1.2986 0.12952 -0.39579 -0.77026 -0.10401 -0.09632 -0.039801 0.8373 0.10462 -0.11653 0.5015 0.60256 0.81909 -0.34386 -0.50899 0.019668 -0.080375 -0.27617 0.72324 1.0383 -0.62717 -0.10975 -0.4923 1.4004 -0.079681 0.082516 
AGACCT 0.012964 0.015908 -0.014151 -0.015872 0.0031348 -0.015661 -0.0072053 0.016535 -0.0019319 0.00764 -0.012137 -0.0047382 0.0081703 0.016899 0.013591 0.012964 -0.010638 -0.0066025 0.0059737 -0.007845 0.0047797 0.0033273 -0.00068434 0.0058666 -0.0060042 -0.0055426 0.015008 -0.019347 0.0032836 -0.017381 -0.0074519 -0.015823 0.012253 -0.0097949 -0.0071109 -0.010323 0.0043622 -0.015867 -0.016212 0.0092393 0.011072 -0.0011958 0.0017713 -0.006746 0.003073 -0.01879 -0.015 0.017719 -0.0030529 -0.0092782 
AGCACT -0.017213 0.018151 -0.01667 0.011242 -0.015612 -0.0031543 -0.010742 0.018018 0.016099 0.018048 0.017453 -0.0008766 0.016698 0.017193 -0.0012569 0.005622 0.012919 -0.0075136 -0.015224 0.0059489 -0.0090722 -0.0020176 0.0076103 -0.0022529 -0.00044476 0.0041111 0.013477 0.0013797 0.0020046 -0.0051004 0.010512 -0.018941 0.0099676 0.0010051 0.016929 0.019268 0.00061735 0.012914 0.010807 -0.00034631 0.0027204 0.015307 0.018205 -0.017819 -0.01486 -0.0050991 -0.011807 0.0063857 -0.0062056 0.0079222 
AGAGCT 0.0075577 -0.0085697 0.015095 0.013314 0.01635 0.017235 0.0021788 -0.0015834 -0.00071958 0.0083729 -0.015194 -0.019087 0.0054897 0.0067934 0.0037891 0.0023466 -0.009278 -0.012222 -0.017439 -0.019995 0.011117 0.0071407 0.016993 0.0090515 -0.010782 -0.01484 -0.0075027 0.012936 0.0045351 0.0049945 0.0073434 -0.001176 0.011417 0.013441 -0.0070598 -0.0011895 -0.017032 0.014829 -0.005541 -0.017323 -0.0034158 0.0089993 -0.015339 0.016849 0.010106 0.018892 2.3971e-05 -0.017336 0.00091101 -0.017223 
AGGACT -0.0089665 0.0094897 0.0048981 0.00067776 -0.010184 0.01032 0.013833 -0.0057006 0.010593 -0.01629 -0.017699 0.0017814 -0.018104 0.0028504 0.0086844 -0.0064398 0.0089321 0.015587 0.0058947 0.018261 -0.015535 -0.0040213 -0.0094971 -0.012109 -0.010515 -0.0038962 0.013146 0.012127 0.011394 -0.0029045 0.017103 0.0045626 0.0010147 0.00072934 -0.018026 0.01188 -0.015908 -0.0022016 0.011559 -0.018738 0.011602 -0.0030806 0.012659 -0.016074 -0.0087115 0.00092076 -0.011603 0.015627 0.0054432 0.012798 
AAAAAT 0.44334 -0.59536 -0.24716 0.37856 0.25578 -0.22396 0.013837 0.064367 0.47707 0.067374 -0.18527 -0.43385 -0.22725 -0.22467 -1.0749 -0.77054 -0.082561 -0.59289 0.14757 -0.63005 0.43459 0.024277 0.14063 -0.56196 -0.13869 0.31487 0.37051 -0.39625 0.57829 0.69044 -0.11797 0.44367 -0.65755 -0.30789 -0.2243 -0.10258 -0.25569 -0.25642 0.21833 0.18706 0.27854 -0.25925 -0.24207 -0.050899 -0.30565 0.47957 0.36767 0.73798 0.432 0.45645 
AAACAT 0.34774 -0.067071 -0.10384 -0.50587 0.385 -0.25208 -0.48647 0.25591 0.38421 0.35157 -0.15709 -0.021682 -0.83014 -0.79115 -0.54412 0.01929 0.39205 -0.45667 -0.31342 0.089698 -0.82381 0.11593 -0.10574 1.0419 -0.55995 -0.19654 -0.41602 0.11384 -0.34573 0.26624 0.11979 -0.11204 -0.305 -0.51 0.36378 0.01531 -0.66007 -0.12421 -0.081177 0.37834 -0.089709 0.28073 0.57214 -0.67225 -0.32713 0.22262 -0.0086907 -0.26058 0.2733 -0.63023 
AAAGAT 0.24252 -0.0049882 0.28237 -0.74775 -0.5892 0.16986 -0.039846 0.092512 -0.72457 0.75537 -0.12246 -0.17865 -0.22392 -0.93 0.67189 -0.13333 0.36161 -0.55838 -0.23269 0.62343 -0.24231 -0.33586 -0.56811 0.38467 0.63707 -0.27092 0.27777 -0.36595 0.43645 0.08141 1.0155 0.33762 0.030996 0.017828 0.039047 0.014377 0.061272 0.24914 -0.34622 -0.4405 0.13384 0.35829 0.075519 0.11434 -0.52157 0.1515 -0.2069 0.11925 -0.027463 0.52532 
AAATAT 0.48259 -0.23005 -0.43208 -0.014067 -0.2852 -0.36102 -0.29921 0.49273 0.29334 1.1726 -0.077994 -0.19819 -0.64266 -0.096307 -0.026782 0.071716 -0.44755 -0.049544 0.26483 -0.7272 -0.48311 0.70636 0.64025 -0.072035 0.083782 -0.074426 0.36244 -0.026452 -0.068056 0.010981 -0.0092797 0.20954 -0.57202 0.86009 -0.0060626 0.12084 0.083137 -0.23721 0.065008 -0.4743 -0.13887 -0.32584 0.41941 0.10695 0.086935 -0.30103 0.22609 0.42937 0.4738 -0.14755 
AACAAT -0.17738 0.074496 0.22261 -0.68609 -0.53228 -0.69639 0.1308 0.69336 0.080226 0.88582 0.73688 0.46057 -0.41247 -0.1779 -0.84532 0.43409 -0.27363 -0.58622 -0.5226 -0.15618 -1.366 0.2382 1.1415 0.83922 -0.48088 -0.21075 -0.0051615 -0.35111 -0.1276 -0.012405 -0.56681 -0.42855 0.39165 -0.14902 -0.28638 -0.32978 -0.44662 0.050227 -0.17225 -0.24868 0.1849 0.11606 -0.20924 0.603 -0.027887 0.42081 -0.71178 0.19242 0.028724 -0.72477 
AACCAT 0.091163 -0.026273 0.42519 -0.30718 0.029276 -0.2894 1.0048 0.27 0.32134 0.44814 -0.069993 0.4241 -0.37211 -1.1471 -0.082704 -0.24667 -0.32892 0.23683 0.9387 0.16418 -0.18225 -0.75976 0.66578 -0.024173 -0.84995 1.1099 0.13688 -0.1916 -0.77142 -0.93708 -0.27344 0.58044 -0.10652 0.31127 0.2399 -0.095568 -0.4651 -0.38506 -0.47656 0.42357 -0.35682 -0.36598 -0.30291 -0.59692 -0.10577 -0.10446 0.16278 0.27636 0.37906 0.61789 
AACGAT 0.29889 0.75264 -0.23043 -0.23713 -0.15168 -0.5003 -0.40496 0.43379 -0.90051 0.046828 0.75505 -0.18463 -1.2024 -0.40269 -0.58557 0.10338 -0.51486 -0.16662 0.69694 -0.88464 -0.19917 0.012487 0.55617 -0.57778 -0.63915 -0.29851 0.25773 -0.079652 -0.081395 0.61082 0.21336 -0.58094 -0.45013 0.27029 0.81536 0.35775 0.35995 -0.68118 0.50175 -0.92086 -0.91939 -0.7657 -0.36037 0.25521 -0.14372 -0.73622 -0.5931 -0.84572 -0.33505 -0.020788 
AACTAT 0.18279 -0.048958 -0.25608 0.81408 0.091532 0.32726 -0.094224 -0.21631 0.49812 0.5955 0.053681 0.22289 -0.26263 0.22654 0.18871 0.19864 -0.48379 -0.45312 -0.13746 0.57825 0.35111 -0.53907 0.14271 -0.40965 -0.063454 0.25844 -0.21524 -0.058285 -0.30555 -0.84289 0.23467 -0.66482 0.58415 0.85832 -0.8071 0.73166 0.1912 0.26204 0.17781 0.16256 0.11185 -0.0024769 -0.11345 -0.11768 -0.56985 0.56068 0.22663 0.6311 0.016305 -0.9749 
AAGAAT 0.34377 0.47468 0.12702 0.00055884 0.6798 0.072934 -0.4955 0.29496 0.091175 0.27514 -0.25825 0.8362 0.13775 -0.037411 -0.13141 -0.081789 0.12148 0.68066 -0.35343 -0.23351 -0.64761 0.18838 0.36508 -0.22235 0.45449 0.227 0.45358 -0.50482 -0.053466 -0.10918 0.14744 0.33062 0.11764 0.61863 0.64061 -0.21673 -0.81243 -0.23053 0.77082 0.67615 0.46881 -0.72658 -0.048025 0.61135 -1.0048 0.040269 0.10784 -0.24377 -0.20865 -0.77892 
AAGCAT 1.1921 -0.3838 -0.75578 -0.3846 0.44493 -0.27708 0.68419 0.5746 0.74984 -0.06765 0.39857 0.74108 0.15882 -0.43688 -0.58465 0.18563 0.51525 -0.21567 -0.30997 -0.61637 0.047345 -0.3071 0.19579 0.21955 -0.49254 -0.46144 0.45853 -0.14076 -0.70949 0.09446 0.48286 -0.4828 -0.16431 0.09213 0.23494 -0.65418 -0.47157 0.3604 0.34044 0.020877 0.39355 -0.054181 -0.90847 1.1522 -0.87788 0.26685 -0.079144 -0.39482 -0.021567 -0.51152 
AAGGAT 0.10023 -0.048225 -0.41264 1.0332 -0.94096 0.37851 -0.27145 -0.30356 -0.24837 0.33938 -0.1895 0.35187 0.14467 0.47274 -0.89382 0.3816 -0.24433 -0.36348 0.45181 -0.89754 -0.62498 -0.56148 0.59706 -0.44377 1.0575 0.1593 -0.46397 -0.6123 -0.14772 -0.71717 -0.40893 0.036981 -0.16095 0.43431 -0.20078 -0.6505 -0.17591 0.063026 0.39983 0.47466 0.3625 0.57424 0.27331 -0.051836 -0.37441 -0.64424 0.3285 -0.99714 0.21185 -0.10714 
AAGTAT -0.3438 -1.3667 -0.48552 -0.46643 -0.32727 -0.024752 -0.14323 0.42864 -0.51427 0.98696 -0.17736 0.071179 -0.36684 -0.51044 -0.85115 0.62851 -0.34454 -0.41862 0.30236 -0.16857 0.31505 1.0608 -0.58483 0.17519 -0.27326 0.54433 0.022968 -0.36204 -0.14942 0.28776 0.13914 -0.055437 0.26091 0.56871 -0.67603 0.64288 0.35892 0.38873 -0.48654 0.36311 0.037559 -0.18508 1.0117 0.58909 0.24923 0.83079 -0.80239 0.088377 -0.53962 -1.1746 
AATAAT 0.28059 -1.0123 -0.19226 -0.34319 0.12916 -0.20534 -0.49038 0.17306 0.017264 0.1482 0.14541 -0.33982 -0.32711 -0.81296 -0.090129 -0.058126 0.34844 0.02454 0.43202 0.19167 -0.42015 0.20395 -0.01371 -0.20638 0.33391 -0.5774 0.16212 0.29815 -0.32514 -0.25926 0.27139 0.50536 -0.34671 0.19069 -0.4396 0.013544 0.23026 0.32948 -0.050299 0.45157 -0.54159 0.319 -0.24635 -0.56306 -1.0231 -0.084898 0.7098 -0.042475 -0.081207 -1.1165 
AATCAT 0.10007 -0.011334 -0.44502 -0.44703 0.25745 0.46806 -0.14452 -0.062503 -0.52761 0.87711 -0.16215 -0.13054 -0.24998 -0.55367 -0.63907 0.41584 -0.30961 -1.0686 0.099335 0.40238 -0.11353 -0.095224 0.21073 -0.30533 -0.4407 0.037175 -0.23436 -0.25409 -0.076513 0.041763 -0.51954 -0.14739 0.55564 -0.12532 -0.91892 -0.00061957 -0.92252 -0.36599 -0.34284 -1.266 0.25408 -0.61465 -0.78237 -0.055348 -0.1138 0.086334 -0.56259 -0.13461 -0.15405 -0.76633 
AATGAT 0.79194 -0.22261 0.42414 -0.25034 -0.059998 0.5157 -0.047899 0.59675 0.3891 -1.0498 0.19512 0.58225 -0.22774 -0.36896 -0.88021 -0.77422 -0.11599 -0.46096 0.45993 -0.44811 -0.42146 0.18213 0.48745 0.26197 -0.86399 0.49701 0.27369 -0.46805 0.75412 0.39189 0.12421 0.43565 -0.50236 0.30984 -0.3301 0.94041 0.27182 0.5734 0.65103 -0.00402 0.95223 -0.41983 -0.38579 -0.012083 0.17143 0.002628 -0.35283 -0.49101 -0.43433 0.010005 
AATTAT -0.51303 -0.37349 -0.94585 -0.047653 -0.49157 -0.17144 0.13158 0.49666 -0.006069 0.40387 0.12822 -0.14457 0.079313 -0.85 0.23798 -0.068531 -0.73572 -0.55084 0.13535 -0.092354 0.012271 -0.87806 -0.43528 0.35937 -0.28089 -0.13415 -0.049925 0.19914 -0.40187 0.37723 0.46817 -1.1037 -0.20665 0.11982 0.020754 1.1853 0.52632 -0.48987 -0.69332 0.09052 -0.42963 0.46193 -0.43939 0.51114 0.13976 0.35225 -0.57227 0.021817 0.010746 0.32134 
ACAACT -0.0036496 0.38423 -0.69807 -0.4296 -0.33482 1.0961 0.97238 0.30802 0.48611 0.68134 -0.31916 -0.27047 -0.083837 0.050116 -0.02385 0.066664 -0.65619 -0.085783 -0.80728 0.046213 0.12656 -0.49156 -0.015434 0.32125 -0.70216 0.15823 -0.11174 0.057944 0.8981 -0.50792 -0.051315 0.2465 -0.32773 0.24359 1.429 -0.081714 0.0011319 -0.23302 0.26881 0.17272 0.68994 -0.61818 -0.0080733 0.5788 -0.6237 -0.83117 -0.30606 0.60464 -0.186 -0.38051 
ACACCT 1.0914 -1.1263 0.80283 0.41077 -0.18435 -0.60667 -0.97218 -0.5446 0.80071 0.046499 -0.12016 -0.00055754 -0.84613 0.31921 -0.6226 0.64287 0.76543 -0.29833 0.052529 -0.23202 -0.45073 0.47524 -0.22248 -0.46752 0.3743 -0.18639 0.051343 -0.32855 -0.039077 -0.085265 0.079815 0.040123 -0.66619 0.10867 -0.41669 -0.85874 0.097912 0.32846 -0.81373 -0.25797 0.55946 -0.35774 0.41917 0.22954 0.15386 -0.0893 0.017646 -0.025432 0.33465 -0.26698 
ACAGCT 0.084157 -0.73278 -0.33735 0.2856 0.70699 0.099464 -0.44376 -0.044244 0.060226 0.02623 -0.30975 0.087733 -1.1642 -0.62937 0.58025 0.15766 -0.32657 0.32516 -0.24431 -0.059657 0.047486 -0.37168 0.3353 -1.0274 0.39957 0.27117 0.1876 -0.71585 -0.72581 0.89186 -0.94438 -0.45737 -0.53256 -0.59556 -0.020354 0.3672 -0.0041621 0.097602 0.77385 0.58146 0.19728 -0.20307 -0.095695 0.27323 0.062815 -0.053812 0.055092 -0.53458 -0.2559 0.61692 
ACATCT 0.05699 -0.96815 -0.22981 -0.0027748 -0.29188 -0.67877 -0.77788 0.45158 0.047513 0.18513 -0.50061 0.36244 0.2999 -0.32366 0.10293 0.64382 -0.21127 0.15948 0.25009 0.94666 -0.12226 0.18768 0.22941 -0.24543 -0.55428 -0.54509 0.4703 -0.058828 -0.56495 -0.34064 0.077129 -0.22293 -0.93173 0.81479 0.44434 0.20697 0.29508 -0.56014 -0.020687 0.24493 0.78415 -0.073912 -0.40532 0.16023 -0.31329 -0.1871 0.64866 0.30335 -0.16694 -1.2059 
ACCACT 0.21506 -0.53662 0.71162 -0.32737 -0.78209 0.89953 -0.69008 -0.92439 -0.17712 0.035366 -0.55515 -0.64648 -0.82144 -0.28739 0.46964 0.039482 -0.95728 0.40432 -0.24009 -0.071098 -0.034956 -0.70014 -0.49944 -0.38489 0.22437 0.16868 -0.12324 0.0070684 0.49582 -0.26136 -0.37687 -0.46064 -0.69535 -1.187 0.98252 0.94104 0.97152 0.44562 -0.47252 0.25813 0.55452 -0.51399 0.61645 0.269 -0.027826 -0.81649 0.086288 -0.057124 -0.30979 -0.08092 
ACCCCT -0.22645 0.11529 0.21453 -1.0031 -1.5401 -0.19817 -0.5423 -0.42851 -0.87749 0.71226 0.87018 0.096486 -0.36276 -0.32538 -0.23423 -0.077928 0.35719 -0.83162 -0.60753 0.23573 0.89613 0.15678 -0.99318 0.1875 0.53767 -0.4334 -0.31422 0.22691 -0.15939 0.78095 1.0223 0.17466 -0.8548 0.0019333 0.16651 0.25308 0.52215 -0.69184 0.1841 0.53444 -0.54542 0.54917 -0.092086 0.53404 0.44889 0.0078419 0.10578 0.38267 0.29738 0.014318 
ACCGCT 0.38469 1.0801 0.48846 0.46767 0.18215 0.61474 -0.15265 0.27459 0.042097 -0.040019 -0.17782 0.14103 0.19935 0.35136 0.042612 -0.42397 -0.2774 -0.10176 -0.67538 -0.0059762 0.24374 0.2038 0.079831 -0.32195 -0.9808 0.16239 0.50845 -0.45228 -0.46349 0.050185 0.030118 -0.66989 -0.75793 -0.15108 0.43264 0.81321 0.14892 0.092658 0.36859 0.019089 -0.20877 -0.41724 0.4959 -0.19558 0.54159 -0.088833 -0.45968 0.077116 -0.42121 -0.59751 
ACCTCT -0.91539 0.076826 0.14051 0.25741 -0.20654 0.12946 0.28153 0.64526 -0.57788 0.6313 0.047417 -0.066084 -0.31678 -0.30924 0.10829 0.085466 0.013552 -0.53411 0.46434 -0.76299 -0.20305 0.13457 0.22652 0.74414 -0.62582 -0.32128 0.38155 0.34097 0.18099 -0.42591 -0.23337 -0.70949 0.057395 0.3159 0.20137 -0.25598 0.58637 0.25829 0.22289 -0.55963 0.58367 0.20398 1.0857 -0.085014 -0.74343 -0.21728 -0.76 1.508 -0.19949 -0.33519 
ACGACT -0.33713 0.56749 0.10216 -0.016586 0.82115 0.089388 -0.2817 -0.52255 1.421 0.80821 -0.25089 -0.94333 0.69012 0.18015 -1.4806 0.63698 -0.15785 -1.0735 0.10007 -0.54752 -0.54069 -0.18821 -0.25377 0.22183 0.096309 0.33407 -0.60823 -0.4826 -0.28919 0.047473 0.42429 -0.10108 0.74303 0.070954 -0.66092 0.28599 -0.30817 1.062 -0.096275 1.0556 0.30576 -0.59351 -0.14804 0.21336 -0.31227 0.18268 0.33924 -0.65839 -0.6117 0.37507 
ACGCCT -0.6973 0.39422 -0.28969 -0.40744 -0.93028 -0.13373 -0.060825 -0.032445 0.7629 0.61512 0.074422 0.52144 -0.23085 0.41732 0.14419 0.64407 0.55363 0.21759 -0.45717 -0.63249 0.19855 -0.97622 0.23122 -0.2473 -0.17522 0.16884 0.75714 -0.16938 -0.50111 -0.46286 0.055611 0.24299 0.66021 -0.5058 -0.01964 0.28968 -0.055072 0.12975 0.4771 -0.62445 -0.7166 -0.2228 0.12235 -0.24609 1.1364 -0.60897 -0.17207 -0.39372 0.055388 0.23303 
ACGGCT -0.0094948 0.16259 -0.42218 0.61751 -0.68416 -0.11171 -0.34809 -0.57358 -0.37901 -0.09456 0.47263 0.30915 -0.36294 0.51513 0.024704 0.1165 0.24543 -0.52909 -0.32623 -0.68813 0.75478 -1.1452 -0.052647 -0.16409 -0.0026381 0.082689 0.45675 0.0082625 0.31937 -0.96519 -0.3226 -0.041077 -0.41892 -0.37579 -0.19808 -0.67382 -0.39591 0.78466 1.2168 -0.75593 0.40837 -0.30159 0.11204 -0.6068 -0.47243 0.56422 0.38254 -0.43782 0.29967 -0.51778 
ACGTCT 0.21451 0.32496 1.0372 -0.58648 -0.13055 -0.44011 0.28941 0.16879 0.059592 0.42527 0.78622 0.54745 -0.5554 -0.61158 0.44881 -0.13381 -0.18489 -0.28417 0.51116 -0.18303 0.20479 0.031906 -0.19466 0.41738 0.48331 -0.84788 -0.15413 0.030033 -0.71481 0.041407 -0.66843 -0.63371 0.10662 0.80992 0.16835 -0.096547 -0.63888 -0.020296 0.31558 0.43156 -0.28041 -0.85691 -0.45756 0.2395 0.29323 0.09247 0.56048 0.3605 0.2941 -0.38697 
ACTACT -0.45384 -0.30116 0.44513 0.21744 -0.66895 -0.078462 -0.78612 0.37302 -1.0131 0.58545 0.053258 0.17339 -0.82921 -0.011035 -1.5066 0.35513 0.42192 -1.1759 0.4547 0.42384 0.18033 -0.44596 0.095785 0.20396 0.82015 0.46989 -0.52626 -0.13438 -1.1647 -0.23071 0.48564 -0.60481 1.1231 0.0083894 -0.72836 -0.69498 0.69191 0.95622 0.26348 1.0896 -0.30614 0.36664 0.26832 0.54354 -0.48251 0.31886 -0.23056 0.34223 0.15858 0.37575 
ACTCCT -1.0684 -0.11523 -0.54454 0.57628 0.16497 0.90724 -0.45561 0.57416 -0.39782 0.60225 0.55937 0.016276 0.42861 -0.018197 -0.44957 0.67301 0.57566 0.42599 -0.12028 0.45658 -0.13716 -0.51885 0.16306 0.72566 -0.21319 -1.1967 -0.12628 -0.12723 -0.24026 -0.32927 -0.097349 0.50602 0.45843 -0.09944 0.016481 0.034556 0.17938 0.79731 -0.20804 0.25568 0.60073 -0.56342 -0.21971 0.48956 -1.0953 -0.11691 0.8498 -0.01265 0.63727 -0.034186 
ACTGCT -0.21705 -0.49413 -0.148 -0.82926 -0.45857 -0.34528 0.1954 -0.26005 -0.06154 0.22759 0.29535 0.0043022 0.2855 -0.22618 0.34898 -0.17301 -0.92988 -0.58889 0.042641 0.41556 0.12093 0.0062676 0.34817 -0.39799 0.87355 0.10404 0.097331 -0.49818 -0.3038 0.37682 -0.055273 -0.28503 -0.52739 0.045785 -0.58372 0.23104 -0.092902 -0.28928 0.48481 0.97631 -0.11328 -0.93543 0.18157 0.60649 -0.80344 0.62251 -0.043318 0.1359 -0.20408 0.37204 
ACTTCT -0.67048 -0.098621 -0.13661 -0.024439 -0.89828 0.075196 -0.66683 -0.11719 0.097516 0.60724 -0.28786 0.29591 -0.24916 0.23305 0.053133 -0.35443 0.35105 0.23525 -0.53444 -0.39386 -0.23289 0.070727 -0.70173 -0.11833 0.4758 0.47981 0.065184 0.34679 -0.40311 -0.71601 -0.45676 0.31983 -0.70423 0.73048 -0.061977 0.00011697 -0.60456 -0.060646 0.47287 -1.0498 0.62127 -0.1627 0.34648 -0.44862 -0.66173 -0.31575 -0.22731 0.1299 -0.3099 -0.97722 
AAAACT 0.27691 0.12986 -0.037433 0.18759 0.22052 -0.25328 0.23276 1.0032 0.22099 0.28144 0.61785 0.52499 -0.45544 -0.0093194 -0.73537 0.59702 0.55898 -0.62241 -0.34646 0.1582 -0.17112 0.094491 -0.38844 -0.11921 0.92504 -0.22661 -0.79139 0.11372 0.017342 0.5855 -0.57347 0.96612 -0.16135 -0.64998 0.53302 0.26068 -0.37328 0.72035 -0.026048 0.17917 -0.90499 -0.84551 -0.21353 -0.14181 -0.6671 -0.0048523 0.88655 0.65767 -0.32946 -0.26657 
AAACCT -0.35522 -0.18277 0.049193 -0.51423 0.10978 0.309 -0.30161 -0.059958 1.0965 0.34828 0.042365 -0.62244 0.14961 0.023272 -0.40786 0.7977 -0.22842 -1.0476 0.89543 -0.53753 0.27069 0.52415 0.053552 -0.31765 0.38111 -0.28921 -0.46423 0.41271 0.41833 0.21506 0.47545 -1.1182 -0.22573 -0.15737 -0.065992 0.21572 -0.961 -0.20967 1.0796 0.32572 0.15893 -0.27819 0.2469 -0.40817 -0.79645 -0.036941 -0.56023 1.4674 0.43068 -0.19201 
AAAGCT -0.33557 -0.85138 0.41762 -0.52698 -0.65931 0.50189 0.63249 0.51791 0.46999 0.18276 0.16398 0.49408 -0.65623 -0.85191 -0.6876 0.016931 0.04337 0.2832 -1.0974 -0.85716 -0.18191 0.59316 -0.070734 0.21323 0.83092 -0.34608 -0.68691 -1.1345 0.81029 0.80837 0.46129 0.35525 0.33153 1.1569 0.27729 0.046625 -1.0142 0.13884 -0.11588 -0.92548 0.24032 -0.27042 0.0093295 0.40142 0.050257 0.68779 0.20099 -0.047605 -0.59435 -0.31238 
AAATCT 0.42177 0.50674 -0.014259 -0.10752 -0.22467 0.047088 0.10325 1.1664 0.5703 0.022053 0.14524 0.28476 -0.072474 -0.53696 0.48552 0.096318 0.31217 0.40203 0.34483 0.057336 -0.80096 0.58511 -0.74318 -0.14275 -0.43647 -0.46712 -0.22761 -0.60693 0.41227 0.26153 -0.36965 0.48899 -1.0365 0.5614 0.53291 -0.041467 -1.0544 -0.27417 0.71747 -0.94595 0.060943 0.23531 -0.41768 0.3062 -1.1967 0.31401 -0.34391 1.0302 0.58717 0.30841 
AACACT -0.61968 -0.62629 0.018579 -0.074391 0.32281 -0.49484 0.0090615 0.3343 -0.1627 0.5559 0.71591 -0.3968 -1.4654 -0.096769 -0.76107 -0.05164 -0.75275 -0.76443 -0.17204 -0.85956 -0.41659 -0.14766 -0.78815 0.184 0.49731 -0.46823 0.74045 -0.23908 -0.38592 1.0326 -0.13338 0.56578 -0.96006 -0.068011 -0.25129 0.57578 0.34409 0.45366 0.18612 -0.20857 -0.51161 -0.37163 -0.12948 -0.69156 -0.03874 -0.3488 0.92351 0.7172 -0.62314 0.80239 
AACCCT -0.74572 0.041119 0.70215 -0.55075 0.42647 0.66244 0.61208 0.19573 -0.0061426 0.14428 0.74036 0.096163 0.45066 -0.27518 0.69854 0.54478 0.40279 -0.65598 -0.22757 0.044955 -0.36225 -0.79554 0.66463 -0.16017 -0.81966 0.48346 0.73111 -0.52383 -0.20406 -0.33176 0.3538 0.50584 0.88897 0.24623 -0.12876 -0.36224 -0.69048 0.3067 0.75916 -0.47928 -0.71232 -0.36107 -0.18007 -0.68267 -0.44466 -0.029592 0.55441 -0.22859 0.55664 -0.85457 
AACGCT -0.017001 0.86033 0.25296 0.56758 -0.72488 0.23189 -0.24632 0.53208 -1.1209 -0.15399 0.033139 0.56829 -0.48304 -1.0519 -0.19828 -0.030156 -0.20132 -0.056976 0.94697 0.14778 0.62947 -1.1862 0.15797 0.54589 -0.0017471 0.33578 0.13234 -0.34898 -0.13149 0.66417 0.55779 -0.17972 0.1274 -0.53663 -0.10078 -0.64462 -0.71571 -0.65582 0.32237 0.60827 -0.38291 -0.72432 -0.24045 -0.88913 0.21237 0.15102 -0.74267 -0.10726 -0.36119 -0.20988 
AACTCT -0.24919 0.018804 -0.74211 0.41784 -0.27149 1.1448 0.91177 0.45297 0.45808 0.84971 -0.41568 0.83507 -0.44058 -0.44711 -0.29501 0.37636 -0.04509 -0.15391 -0.13923 -0.57684 -0.00026359 0.020106 0.59463 0.09346 0.024113 -0.5566 -0.18684 -0.50611 0.25188 0.89851 0.78444 -0.52982 0.69741 0.75541 0.51954 1.0298 -0.32228 -0.44391 0.26642 0.34228 -1.1879 -0.11113 -0.24654 0.014404 -0.62941 0.33855 0.62712 0.032049 0.44974 -0.30515 
AAGACT -0.29326 0.81646 -0.26431 -0.66285 -0.92376 -0.028591 0.47298 0.41935 0.13328 -0.66474 -0.07814 -0.013968 0.15294 -0.33548 -0.65689 0.53214 -0.46779 -0.51385 -0.34609 -0.18168 0.41343 0.27509 0.33211 -0.73735 1.4018 -0.52973 0.34983 0.38518 0.37179 -0.23723 -0.0068041 0.53597 0.29637 0.15389 -0.37521 0.20025 -0.48258 0.44317 0.2197 -0.284 0.56218 0.023411 -0.5889 0.10375 -0.49407 0.14387 -0.6624 0.10748 -0.63489 0.060689 
AAGCCT -0.099181 -0.1694 0.069744 0.12547 1.2571 -0.4594 0.89554 0.94861 0.67019 -0.19803 0.17108 0.82245 1.3555 -0.49222 -0.26631 0.83915 0.58243 -0.036171 0.37026 -0.37099 -1.1331 -0.58767 0.32783 0.54871 -0.68633 0.25694 1.1685 0.13298 -0.60365 0.64769 0.76392 0.002237 -0.57016 -0.14478 -0.32319 1.0951 0.34817 0.20916 1.0428 -0.24345 -0.78116 -0.29361 0.31459 -0.15253 -0.16175 -0.66222 -0.68131 -0.02637 -0.17083 -0.11845 
AAGGCT -0.44665 0.5986 0.092453 0.88312 0.1829 0.43362 0.43601 -0.21795 0.79173 0.71347 -0.063266 -0.065044 -0.71407 0.44848 -0.39937 0.12379 0.52025 -0.13393 0.71481 -0.29527 0.94 -0.1973 -0.51611 -0.60583 1.5365 -0.17449 0.12811 -0.44008 -1.0692 -0.6789 -0.0589 0.5719 -0.65562 0.39738 -0.15258 -0.16121 0.20697 0.40334 -0.13976 -0.30826 0.02349 0.10097 0.67912 -0.021962 -1.5938 -0.57786 -0.026414 0.66295 -0.14639 0.2803 
AAGTCT 0.031225 -0.64338 -0.46396 0.17576 -0.32176 0.098524 0.2594 0.71418 0.26002 -0.23417 -0.17247 -0.65711 0.3469 -0.4842 -0.52401 0.54012 0.29261 -0.12348 0.58934 -0.0846 0.45039 -0.4521 0.15094 0.58067 0.8383 0.40826 0.3871 -0.30042 1.0892 0.92008 0.31875 -0.35449 -0.34093 0.1408 -0.25747 0.36435 -0.62222 -0.043464 0.37192 -0.66975 0.63617 -0.75608 -0.40447 0.72305 -0.82382 -0.12445 -1.2821 0.065555 0.07339 0.14782 
AATACT -0.32407 0.40992 -0.10915 0.077411 -0.43045 0.39686 -0.069757 0.47475 0.73596 0.64931 -0.25878 0.097265 -0.24764 -0.24991 -0.51548 0.012035 0.71646 -0.5421 0.12564 -0.23567 -0.546 0.84609 0.69668 0.58608 -0.11907 -0.4054 0.22662 0.24468 -0.37698 -0.27878 -0.32846 0.17646 -0.33854 -0.029678 0.02252 0.82906 -0.38545 -0.034134 0.12031 0.96716 -0.5273 -0.2257 -0.30971 -0.10295 -0.55025 -0.14402 0.88458 0.85252 -0.3776 0.13961 
AATCCT -0.067688 -0.16755 -0.27225 -1.147 0.18602 0.38347 0.17162 0.92384 0.31178 0.58836 -0.12251 0.43177 -0.33654 0.33309 -0.67068 0.41687 0.36917 0.20874 -0.69163 0.24124 -0.21329 -0.16011 -0.43851 0.15821 -0.34432 0.51499 0.88978 0.02185 0.47481 0.38176 0.21069 0.76408 0.64663 -0.26755 -0.19614 0.13296 -0.31003 0.98595 0.066738 -0.13275 0.29126 -0.20312 0.11854 -0.097376 -0.37914 0.47959 0.43376 -0.075543 -0.36151 0.40354 
AATGCT 0.1163 -0.4792 -0.36926 0.61793 -0.42321 0.048554 -0.23847 0.091425 -0.91253 0.93078 -0.6318 0.40738 -0.57479 -0.67992 -0.50491 0.59873 -0.24937 -0.34716 0.6873 -0.91822 0.48783 0.27646 0.42082 -0.6199 0.5193 0.42012 0.25885 -0.48635 0.55341 0.10142 0.74501 0.71121 -0.62536 -0.45316 0.43976 0.23821 0.089897 0.24393 0.60366 -0.21827 -0.81568 0.22885 0.55182 -0.59559 -0.33756 0.35626 -0.35498 0.17563 -0.45634 -0.92417 
AATTCT -0.37091 -0.44905 0.070166 0.21835 0.12103 -0.13976 0.084266 0.5174 1.4597 0.21825 0.43688 0.21522 -0.64896 -0.39367 0.41921 0.12753 0.13094 -0.34037 0.37978 -0.094139 -0.35288 0.51577 0.53925 0.089864 -0.27843 -0.20869 -0.32428 -0.31731 0.14504 0.55154 -0.29775 -0.081449 -0.60529 0.40212 -0.33543 1.0078 -0.47935 -0.15388 -0.72253 0.11589 -0.022357 0.45567 0.37766 0.080656 -0.39933 -0.40849 -0.098845 0.50116 -0.30757 0.1614 
ACAAAT -0.53762 0.19445 0.085711 -0.25487 -0.00069896 0.17524 -0.14289 -0.027001 0.39623 -0.10618 0.08018 -0.31298 -0.53409 -0.42929 -0.37612 0.51368 0.089759 0.40403 0.05958 0.056736 -0.20353 -0.01002 0.62683 0.84504 -0.071555 -0.023907 0.53308 0.090356 -0.42632 0.23706 0.67529 0.40045 -0.034842 0.93313 0.22096 0.30366 0.63847 0.32773 0.38365 0.10803 0.65464 0.26096 0.23513 0.65676 0.095326 -0.0464 -0.64745 -0.86162 -0.088414 0.058122 
ACACAT -0.15459 0.76342 -0.020692 0.38536 0.34995 -0.49615 -1.1817 0.13671 0.22505 0.040378 -0.11717 0.058862 -0.2776 0.39544 -0.35989 0.46682 0.18902 0.49637 -0.0060508 0.68952 -1.0432 0.60915 1.2522 0.37497 -0.55658 -0.69586 -0.082352 -0.13374 -0.87936 1.6793 -0.25492 -0.078288 0.90405 0.54577 0.23827 0.35585 -0.36923 -1.0817 -0.40071 -0.18723 0.0010496 0.62663 0.1986 0.61531 0.31562 -0.63442 0.5373 -0.62903 -1.1708 -0.76106 
ACAGAT -0.76244 -0.22363 -0.64143 0.21435 -0.32713 0.059023 0.18121 0.43386 0.29475 1.3455 -0.38254 -0.77269 -0.083238 -0.11992 -0.13718 0.57057 -0.022334 0.20225 0.75046 0.15579 1.1408 -0.80068 -0.27545 0.48121 -0.34044 -0.24704 -0.068597 0.66594 -0.16457 0.56093 0.38745 -0.13482 -0.01789 0.33647 -0.3854 0.031307 -0.37643 0.47763 1.1479 -0.23868 0.42337 -0.8417 -0.88928 0.41209 0.40691 1.156 -0.56194 -0.67192 -1.2709 0.17731 
ACATAT 0.15862 -0.67545 0.2231 0.84543 -0.14688 -0.21551 0.44045 -0.12611 -0.50133 0.95754 -0.084494 1.3685 0.29206 0.66131 0.42232 -0.30534 -0.65622 -0.40456 0.25188 -1.2786 -0.73003 -0.16022 0.22871 0.31107 0.11161 0.81079 0.22132 0.21244 0.034675 -0.16657 0.061313 -0.19561 -0.11188 0.5409 -0.61043 -0.0028777 -0.24922 -0.23601 0.032606 0.22984 0.49629 0.14625 -0.54281 0.52248 0.16544 0.093617 0.261 -0.52997 -0.58865 -0.81154 
ACCAAT -1.8756 0.81509 -0.081177 -0.21167 0.42922 -0.76079 -0.18362 -0.3926 0.14853 0.49158 -0.28766 -0.011998 0.33385 -0.25732 0.061658 0.10509 -0.66583 -0.53312 0.13464 0.33712 -0.96565 -0.26112 -0.39342 0.24697 -0.25555 0.14795 0.57085 0.79829 -0.98757 0.55373 0.077428 -0.63978 0.045561 0.73732 0.047481 0.91761 0.14175 0.28148 -0.074733 -0.36838 -0.46905 -0.24087 0.46924 -0.59103 -0.055035 -0.7504 -0.12048 -0.072045 -0.27772 -0.63123 
ACCCAT 0.68698 -1.0168 0.55505 0.41498 -0.51737 -0.027434 -0.34578 -0.23781 -0.53019 -0.28953 -0.59314 -0.79062 -0.028341 -1.118 -0.73514 0.65522 0.69728 -0.65805 1.0087 0.39529 0.92174 -0.15936 0.38411 0.71341 -0.7265 0.68668 -0.12293 0.16645 -0.55098 -0.33798 0.82215 0.53573 -0.19507 0.51037 -0.49757 0.58016 -0.55861 0.29022 0.38927 0.44009 -0.02895 1.1156 -0.12627 0.43249 -0.97289 -0.51186 -0.45714 0.55148 0.039244 0.40292 
ACCGAT 1.1039 0.28912 -1.3673 -0.07965 -1.0416 0.28891 -0.93046 -0.53768 0.075599 0.64838 -0.2409 -0.40479 -0.017605 -1.475 -0.1484 0.68826 -0.26311 -0.21303 0.61303 0.3038 -1.226 -0.44074 0.093517 -0.040608 -0.0056775 0.34345 0.48651 -1.0217 0.41603 0.37721 1.1504 0.23065 0.46173 0.28653 0.99293 0.1831 -0.37714 0.038543 0.83194 -0.2126 -0.19012 0.55983 -0.81691 -0.014058 -0.79357 0.43323 0.00074967 -0.10363 0.33633 -0.61019 
ACCTAT 0.89274 0.31244 0.12309 -0.20407 0.71202 -0.55893 1.0922 0.69763 -0.089037 -0.29277 -0.070694 0.13154 -0.52959 -0.52323 0.38045 -0.45809 0.30723 -0.25931 0.063981 -0.36973 0.75401 -0.49134 -0.35448 -0.52778 -0.36048 -0.30899 0.69657 -0.76924 -0.71221 -0.23971 0.36309 -0.053003 0.53014 -0.28646 -0.2616 0.21752 0.27405 1.0596 0.55291 -0.42494 -0.12467 0.1622 -0.073117 -0.22881 0.45277 -0.14363 -0.20288 -0.1083 0.3446 0.66668 
ACGAAT -0.6457 -0.11953 0.65089 -0.58877 -0.054406 0.48055 -0.9216 0.44676 0.66853 1.1373 -0.22399 -0.22229 -0.12976 -0.92434 -0.20469 0.50061 -0.10789 0.73855 0.85512 0.59134 0.67534 -1.0059 0.65428 -0.085711 0.15149 0.25947 0.75883 -0.45997 -0.26494 -0.033126 0.478 -0.88329 -0.4372 0.62864 -0.35272 -0.77132 0.56416 0.10062 0.26227 -0.42191 -0.17333 -0.41355 -0.38971 0.36479 -0.003006 -0.67217 -0.33146 -0.52796 0.50529 -0.40347 
ACGCAT -0.18047 -0.17918 0.35037 -0.46771 -0.55628 0.12874 0.298 -0.43271 0.16046 0.036154 0.24154 0.21059 0.9048 -1.022 0.55134 0.6087 -0.64906 -0.32132 -0.25736 -0.091606 -0.43187 0.43128 0.31488 -0.12642 -0.28265 -0.28134 0.054359 -0.077953 -0.17888 -0.70635 -0.46017 -1.3838 0.23669 0.91836 0.16107 -0.25892 -0.55249 0.18654 0.71495 -0.0026032 -0.49091 -1.1697 0.46656 0.47085 -0.83817 0.54231 -0.25623 -0.020248 -1.243 -1.2528 
ACGGAT -0.65083 -0.24332 -0.33208 -0.2545 -0.065295 0.79405 0.25627 0.39427 0.70213 0.33034 -0.18074 -1.2442 0.19566 -0.16105 -0.68764 0.50985 -0.1636 0.04151 -0.24302 -0.17761 -0.17417 0.35584 -0.15731 1.2019 0.72007 0.41629 -0.058641 -0.1631 -0.92682 -0.61953 -0.32679 -0.24813 0.48681 -0.13384 0.34793 0.07047 0.056378 -0.59453 -0.22838 0.79234 -0.88903 -0.10261 -0.10579 0.0343 -0.49746 0.025956 -0.68506 -1.0339 -0.36362 0.050568 
ACGTAT -0.97282 0.40788 -0.64131 -0.892 -0.69935 -0.72984 0.01113 -0.61514 0.82375 0.30103 -0.43519 -0.99941 0.10418 -0.62442 0.29378 0.59759 -0.48959 -0.4785 0.8965 0.3935 -0.25726 0.48388 0.15455 0.62251 -0.48319 0.2698 0.70738 -0.62088 -0.83728 -0.39965 -0.095493 0.014644 -0.45279 0.36889 0.070721 -0.21891 0.56451 -0.41255 0.45589 -0.051156 -1.0138 0.22263 -0.30506 -0.3187 0.15643 0.015931 0.32679 -0.30749 -0.31995 -0.075223 
ACTAAT 0.20158 -0.26366 -0.42233 -0.37163 0.21035 0.20914 -0.31722 -1.1132 -0.25913 0.90079 -0.20604 0.075138 -0.42485 -0.64067 -0.19958 0.24338 -1.0714 -0.52133 0.5972 0.8993 -1.1936 -0.20566 -0.23904 0.4968 -0.045693 -0.45133 0.84259 -0.069482 0.89441 -0.19251 1.0091 -1.3647 -0.428 0.49211 0.35747 0.48018 -0.38883 1.1414 0.20182 -0.52838 -0.16362 -0.30825 -0.39483 -0.13517 -0.19085 0.7703 1.0299 -0.083671 0.07797 -0.85912 
ACTCAT 0.014366 0.45158 0.63 0.26708 -0.039877 -0.56089 0.14159 0.80382 -0.04788 0.34341 -0.1862 0.78822 -0.29059 0.30584 -0.088236 0.66626 -0.45131 -0.014666 0.84506 0.23506 0.30576 0.31212 -0.13618 -0.044123 0.70129 0.65001 0.14767 0.43427 -0.39961 0.17531 0.28363 -0.48078 0.045838 0.074445 -0.0036679 -0.12879 0.45557 -0.67073 0.56452 0.19115 -0.67566 0.18087 0.15504 0.44986 0.43425 0.024328 0.16234 0.10546 -0.060441 -0.57581 
ACTGAT 0.72473 0.62515 0.019734 0.24734 -0.22436 0.37392 0.25137 -0.14809 -0.69596 -0.5558 -0.17605 -0.67043 -0.71064 0.57874 -0.51484 -0.51612 -0.4173 -1.2063 0.75926 -0.58048 -0.17521 -0.55625 0.15072 0.90308 -0.03175 0.4869 0.28408 0.76441 0.36422 0.77693 0.66215 0.40402 0.092177 0.42578 -0.095739 -0.33988 -0.10239 -0.63751 0.67639 0.12553 -0.11847 -0.90656 -0.12538 0.89209 0.030063 0.07824 0.092915 -0.75323 -0.6901 -0.35409 
ACTTAT -0.53338 0.52279 -0.68599 0.011204 -0.61292 0.40119 0.086878 0.19677 0.225 -0.10246 -1.1863 0.3038 0.0017844 -0.55169 0.61206 -0.55494 -0.061969 -0.60991 -0.90924 -0.28149 0.27889 0.4006 -0.40588 0.19124 -0.43742 -0.17052 -0.22503 0.3283 0.26253 -0.01155 0.75346 -0.06921 0.069098 0.8346 -0.39523 0.12933 -0.28409 -0.43062 0.21956 0.07531 -0.49931 0.16666 0.57191 1.0662 -0.9525 -0.013359 0.25735 0.51567 0.85571 -0.04967 
AAAAGT -0.40737 0.14115 -0.12985 -0.22212 -0.70767 0.49397 1.2392 0.19562 0.27794 -0.18305 0.64406 0.31723 -0.31053 -0.62612 -0.017118 0.3158 0.081179 0.20984 -0.46281 0.040615 -0.45703 -0.13548 0.044318 -0.059082 -0.57993 -0.50758 -0.19485 -0.51867 -0.36968 0.14596 0.20417 0.73329 0.88481 0.61587 -0.58513 0.50674 -0.06138 0.22131 -0.081177 -0.0020006 -0.26562 -0.05201 -0.46376 0.087597 -0.14035 0.29127 0.47473 0.31909 0.18114 -0.79576 
AAACGT -0.0024477 0.017849 -0.59405 -0.42215 -1.0293 1.1672 0.12818 -0.70303 0.44327 0.41816 0.60535 -0.086404 -0.83522 -0.76585 -0.41704 0.48305 -0.27697 0.26122 0.27865 0.70388 -0.81402 -0.39802 0.17761 0.0063954 -0.68793 -0.36453 -0.23069 0.056842 0.074802 -0.16801 0.22934 0.021759 0.18585 -0.28241 -0.18205 -0.01805 0.13007 -0.1839 0.015661 -0.51147 -1.0426 -0.43893 0.52626 -1.6299 -0.32068 -0.48608 -0.36303 -0.76771 -0.050057 -0.81839 
AAAGGT -0.41064 0.2519 -0.58587 0.30084 -0.11322 -0.18624 0.12533 0.088218 0.30914 0.4922 -0.50048 0.32592 -0.73915 -0.37014 -0.62524 0.36589 0.48486 -0.35912 0.52161 -0.29096 -0.09554 -0.30872 0.016175 -0.18838 -0.023999 0.37723 0.18699 -0.15171 0.11511 -0.33777 -0.29598 0.2963 0.43026 0.07129 -0.35858 -0.41291 0.0045944 0.49594 0.82203 -0.099688 -0.66208 -0.54265 0.42161 -0.14533 0.084965 0.16957 -0.2329 0.050916 -0.62322 -0.15986 
AAATGT 0.25103 -0.46784 0.15709 0.072464 -0.24642 -0.77458 0.17428 1.1848 0.07005 -0.50204 0.39062 0.49258 -0.5644 -0.6056 0.77464 1.0767 -0.1415 -0.38264 0.39227 -0.29066 -0.35104 0.41253 0.63489 -0.061348 -0.31228 -0.19119 0.14744 -0.17172 0.44335 0.13773 0.3454 0.10651 -0.92577 0.34025 -0.091987 0.10212 -0.18559 -0.49131 0.57305 -0.14968 0.0049697 0.056204 -0.013425 0.86025 -0.40494 0.11203 -0.011131 0.6933 0.10857 -0.56453 
AACAGT -0.57777 0.037483 -0.54645 0.81908 -0.23967 0.22452 -0.2325 0.14508 0.06617 0.72888 -0.79569 -0.25276 0.26246 -0.19831 -0.3159 -0.80236 -0.81736 0.49788 -0.34907 -0.51918 -0.71377 -0.46666 -0.61463 0.12205 0.061691 0.042991 -0.2132 -0.24857 -0.19417 0.30243 0.27826 -1.1076 0.29855 0.63728 0.43347 0.63604 0.2386 -0.83032 0.095856 0.75051 0.14913 -0.27331 -0.040795 -0.72115 -0.34093 0.41733 -0.95392 0.67471 -0.16294 -0.23692 
AACCGT -0.48278 -0.40803 0.0052162 -0.54856 -0.091052 0.31582 -0.30765 -0.33318 0.060007 -0.067941 -0.043555 0.78519 -0.36369 -0.78166 0.46312 0.056692 -0.25109 -0.40459 -0.28853 -0.19845 -0.31305 0.074684 1.4259 -0.21401 -0.53926 0.033411 0.75327 0.43898 -0.57476 -0.90369 0.60613 -0.43651 -0.054151 -0.30493 0.37097 -0.69277 -0.32149 -0.32113 -0.6664 -0.27234 0.025751 -0.50957 0.59323 0.051349 -0.31587 -0.21265 0.10258 -0.24569 0.20972 -0.3288 
AACGGT -0.21833 0.97567 0.083698 0.34553 -0.2524 0.78595 0.65514 0.27025 0.19321 0.68246 -0.25586 -0.6241 -0.22656 0.3898 -0.44978 -0.026102 0.69429 0.21951 0.30848 -0.11206 0.21529 -0.18488 0.043253 -0.20081 -0.16274 -0.29123 -0.50365 -0.8988 -0.1959 -0.76389 1.0549 0.066482 0.27362 -0.12869 0.13385 0.43853 -0.26808 0.20471 0.95295 -0.64941 0.49967 0.28552 0.10426 -0.33997 0.16659 -0.40363 -0.67709 -0.94656 -1.0169 -0.90379 
AACTGT -0.15379 0.0095189 0.61118 0.045209 -0.38459 0.17464 -1.1976 -0.94787 -0.14813 0.66035 0.22986 -0.93782 0.011536 0.48935 -0.32029 0.26657 0.25201 0.010329 0.34171 -0.75513 -0.59427 0.049685 0.4393 -0.1753 0.24186 -0.20929 0.054193 -0.098126 -0.55587 0.19283 -0.58754 -0.044161 0.20693 0.9691 0.2135 0.6541 0.16516 0.46975 -0.039488 -0.354 -0.13438 0.2257 0.042081 0.15764 -0.88093 -0.44998 -0.20348 0.74106 -1.1475 -0.072822 
AAGAGT -1.2412 0.44177 -0.44615 -0.17748 -0.53657 1.1657 -0.51694 0.61479 0.3062 0.70514 0.0080412 -0.61903 0.43801 0.056702 -0.3153 -0.17298 -0.97669 -0.23599 0.14649 -0.27233 -0.13362 -0.062539 0.35991 1.0996 -0.47855 -0.18338 -0.41997 0.26715 0.33088 0.41178 1.2229 0.76376 -0.23389 0.44025 1.1952 -0.29824 -0.83273 0.60824 0.14 0.48378 -0.81692 -0.51298 -0.094103 0.59271 -0.29038 -0.42572 -0.3383 0.36774 0.78595 0.14777 
AAGCGT -0.28942 0.40115 -0.44984 -0.27248 -0.38139 -0.22952 0.015064 0.10787 0.42992 -0.47227 -0.4122 -0.7304 -0.099798 0.3638 -0.66732 -0.58579 -0.67966 0.27185 0.68167 0.1812 0.67383 -0.083653 1.6329 0.39506 -0.28001 -0.34827 -0.2948 -0.2845 0.37208 -0.27235 -0.060953 -0.79863 0.58217 -0.51213 0.93066 0.47433 -0.21126 0.58794 -0.092157 -0.33935 0.44396 -1.2104 -0.17584 0.49937 0.047961 0.65869 0.25152 -0.60458 -0.24163 0.40549 
AAGGGT 0.36734 -0.044006 -0.015054 -0.60649 -0.49383 0.70654 0.88265 -0.049488 -0.87701 0.37078 -0.24154 0.35693 -0.13092 0.3424 -0.60874 0.34137 -0.15104 -1.0737 -0.27709 -0.23681 0.28159 0.27086 0.66055 -1.2035 -0.32029 0.37421 0.011992 -0.10393 -0.25791 -0.075481 0.042614 -0.52729 -0.78905 0.028808 -0.077298 -0.12538 -0.096951 0.30357 0.1474 0.10978 0.082775 -0.44018 0.0746 0.6801 -0.29836 -0.63552 -0.56209 0.72523 0.84235 0.40461 
AAGTGT 0.064335 -0.31334 -0.13152 -0.48605 0.13836 -0.20333 0.53045 1.2005 0.93813 -0.36875 -0.32745 0.25033 -0.52815 -0.6952 0.24756 0.49552 0.32126 -0.19762 -0.32557 0.009056 0.34101 -0.26666 1.1389 0.40549 0.037647 0.04902 0.2952 -0.20119 -0.99425 -0.29494 -0.65762 -0.63148 -0.048197 0.60279 -0.39783 0.30968 -0.50111 -0.5608 0.60438 -0.83561 -0.4909 -0.68765 0.13248 -0.0045863 0.14536 0.29875 -0.16791 0.43831 -1.0962 -0.73914 
AATAGT 0.41706 -0.41489 0.17294 -0.85156 0.034024 0.091198 0.097921 0.72394 0.11733 -0.14831 0.26277 -0.93902 -0.090086 0.99622 0.25441 -0.80033 -0.74627 -0.18306 -0.10703 -0.66494 -0.022215 0.15053 1.2841 0.23211 0.29661 0.1208 1.1034 0.57611 -0.43878 -0.10153 0.11677 -0.46714 0.32257 -0.32156 -0.78798 0.13517 0.054509 0.46826 -0.049356 -0.11257 -0.60517 -0.25576 0.56216 0.49611 -0.11558 -0.52044 0.64573 0.80661 0.40583 -0.19392 
AATCGT 0.074764 -0.39693 0.6352 -0.10173 0.17835 0.54018 -0.73866 0.68115 -0.94417 -0.0060774 0.64569 0.59235 -0.40864 -0.6615 -0.66658 -0.26439 0.78832 -0.40458 -0.21482 -0.84427 -0.74051 -0.048673 -0.84175 0.50915 0.035791 0.12128 -0.033473 0.099303 0.58192 -0.80966 -0.9711 -0.18001 -0.68241 -0.70871 -0.89441 0.80263 -1.0164 0.32284 0.31711 0.023247 0.45829 0.4265 -0.2988 0.36451 0.31727 0.46803 0.18938 0.20596 -0.21499 -0.05626 
AATGGT -0.23954 0.69982 0.56437 -0.10279 0.39824 0.72319 -0.64364 0.078817 -0.18839 1.3865 0.26667 -0.58206 0.10932 0.83288 -0.64143 -0.005931 -0.29032 -1.2096 0.40219 -0.021186 -1.0428 0.14498 0.038289 0.08251 0.63001 0.58189 0.055969 -0.55296 0.21045 0.3404 -0.15889 -0.18388 0.29795 0.16431 -0.71212 0.84819 0.24711 0.20173 0.012556 -0.014476 -0.51281 -0.38543 0.88649 -0.51949 0.83584 -0.20286 0.2813 0.7411 -0.21199 -0.17284 
AATTGT -1.3613 0.21576 -0.78952 -0.97065 -0.52265 -0.15445 -0.20477 -0.13944 -0.15319 0.069123 -0.46542 -0.19229 -1.0552 0.013163 -0.46209 -0.093904 0.14049 0.22581 0.38835 -0.21118 0.041803 0.048524 0.36865 -0.14502 -0.28077 0.26114 0.41282 0.13685 -0.0070774 0.27018 1.0324 -0.38201 -0.16388 -0.15261 0.058462 0.5442 -0.11555 -0.31326 0.73408 0.63669 -0.73011 0.45046 0.81996 0.11325 -1.0036 -0.22767 0.26198 -0.30489 -0.28922 -0.12838 
AGAAAT -0.58156 0.15515 -0.25828 -0.12155 -0.14197 0.42029 -0.35077 -0.029853 1.0608 0.02241 0.22725 0.16518 -0.45578 0.3302 -0.18564 -0.43379 0.14803 0.57163 -0.71136 -0.33409 -0.55388 0.19596 0.11603 -0.18198 0.16408 0.02895 -0.17763 -0.097087 -0.058766 0.16855 0.30137 -0.06768 0.011923 0.42401 0.20298 0.086906 -0.12485 0.62072 -0.10378 -0.46249 0.55548 0.083004 -0.41796 -0.35299 -0.73822 -0.042703 0.54279 -0.078722 -0.36347 -1.17 
AGACAT 0.15916 -0.37893 0.14606 0.26803 -0.059704 -0.83041 -0.79258 0.39568 0.72845 0.65415 0.4405 0.29289 -0.33896 0.13834 0.63388 0.22437 -1.3774 0.031277 0.23604 0.21932 0.17652 -0.15681 -0.078634 0.088721 -0.01733 -0.011597 -0.23946 -0.8532 -0.28769 0.31216 -0.4276 -0.51463 0.057364 0.13355 -0.15408 0.50957 -0.27607 0.40616 -0.29732 -0.0067244 -0.018759 -0.44845 -0.24142 -0.60026 -0.5445 -0.6012 -0.15632 -0.34007 0.58091 0.41153 
AGAGAT 0.10232 0.13018 -0.39158 -0.28759 -0.97873 0.57055 -0.56972 1.0471 -0.37747 0.03834 0.040911 0.031536 0.6559 -0.52888 0.21328 -0.47831 0.28721 -0.59935 0.0036993 0.034508 -0.46094 0.62068 -0.66474 -0.14906 -0.3985 -0.34447 0.060609 -0.36979 0.49176 0.49994 0.29148 1.3147 -0.24275 0.075069 0.57065 0.45683 0.054189 0.21629 -0.4122 -0.52889 -0.56669 0.13347 -0.67521 -0.32737 -0.39005 0.52458 0.33595 -0.65742 -0.24828 -0.80208 
AGATAT -0.028072 -0.73072 0.62754 0.4543 -0.048743 0.069697 -0.27586 1.1096 -0.027928 0.18347 -0.17715 -0.21719 0.50448 -0.44881 -0.012709 0.19006 -0.76292 0.16468 -0.34549 -0.49346 -0.17658 -1.2357 0.10294 0.28893 -0.051439 -0.16093 0.2492 0.0057051 0.18188 0.54965 0.97295 0.75885 0.18691 0.59914 -0.2268 -0.15413 0.27175 -0.35956 -0.75211 0.039191 0.15252 -0.010102 -0.070088 0.47786 0.3899 1.0784 0.27923 -0.25217 -0.93931 -0.17094 
AGCAAT -0.084008 0.069055 -1.3453 -0.018503 0.10738 0.20938 -0.0093569 0.33478 0.18693 0.73703 -1.2605 -0.43443 -0.90048 -0.13265 -0.49443 0.014264 0.70398 0.32112 -0.13108 0.014355 -0.19173 0.10171 -0.62559 1.054 -0.81909 0.25502 0.29012 -0.35207 0.2988 -0.30828 0.51723 0.41585 -0.092961 0.27974 0.37429 0.28461 -0.45675 -0.26453 1.193 0.25186 -0.47425 -0.50975 -5.8757e-05 -0.083673 -0.25155 -0.038763 -0.49545 0.23817 -0.71131 -0.51929 
AGCCAT -0.75635 -1.6586 0.73647 -0.094547 0.1772 0.053161 0.056847 -0.5889 0.0030182 0.16242 -1.2317 -0.27055 -0.33961 0.2523 0.21115 0.82843 -0.30028 -0.28691 0.18685 -0.80122 0.1418 0.85648 0.83054 0.4267 -0.31264 0.49161 -0.14926 -0.22248 -0.96299 -0.27961 0.67833 -0.28328 -0.16245 0.20423 0.34533 0.26243 -0.12444 0.64852 0.096497 0.15523 -0.36856 -0.68488 0.58375 0.25503 -0.18354 -0.98055 -0.10439 -1.1891 -1.0389 -0.85348 
AGCGAT -0.50769 0.02552 0.0087481 -0.23637 -0.44301 0.45023 -0.23563 0.83545 0.010712 1.0532 0.45942 -0.56214 -0.50881 -0.2497 0.090665 0.81765 -0.064214 -0.41581 1.4386 -1.046 0.17269 -0.11225 -0.11379 0.9306 -0.30355 0.25266 -0.13565 -0.89185 0.45112 0.31902 -0.90676 0.13647 0.33537 0.78956 -0.35077 0.034313 -0.58175 -0.73256 0.58659 -0.38183 -0.49384 -0.98394 0.14472 -0.28211 -0.374 0.82434 0.77924 -0.44292 0.13987 -0.072716 
AGCTAT 0.087551 0.075774 -0.55761 0.9041 -0.89584 0.28683 -0.090321 0.20038 0.8232 0.93993 -0.92227 -1.4065 0.40476 0.50008 0.11934 -0.11691 0.69766 0.19033 -0.83773 -0.19086 0.25229 -0.38356 0.20139 0.47195 0.52346 1.0788 0.36899 -0.25437 -0.33313 -0.19773 0.31532 0.15596 -0.44871 0.9618 0.20115 0.39381 -0.63344 0.9546 0.090222 0.28514 -0.041283 0.12474 -0.67637 -0.23042 -0.19264 -0.096668 -0.11899 0.81306 0.1861 -0.33284 
AGGAAT -0.4506 -0.046518 -0.16086 0.26658 -0.12898 -0.014171 -0.14881 0.74041 0.28833 -0.26893 0.15451 0.19053 0.92964 -0.06349 -0.45795 -0.074618 -0.36119 0.64556 0.78878 -1.0147 -0.67954 -0.36281 0.41025 0.118 0.091877 0.22055 -0.91159 -0.75626 0.68387 -0.49874 0.1951 -0.20844 -1.1205 0.54321 -0.22193 0.75573 -0.44077 0.23514 0.35568 0.35811 -0.23691 -0.36808 0.72364 0.41755 0.26278 0.12887 -0.63072 0.43013 -0.034012 0.15383 
AGGCAT 0.87601 -0.040174 -0.1639 -0.83049 0.13196 0.090673 0.0022432 -0.71793 0.40365 -0.28625 -0.28658 0.40588 0.44065 -1.0193 -0.59576 0.44455 0.23003 0.12618 0.33861 -0.023967 0.22836 -0.062056 0.33684 0.67506 -0.56341 0.20113 -0.48388 -0.82835 0.11807 -0.21348 0.50945 -0.40601 -0.77747 0.25087 0.18108 0.1938 0.031213 0.83818 0.05664 -0.85608 0.40458 0.069237 0.35927 -0.4827 -0.2767 -0.21312 0.72254 -0.1555 -0.98493 -0.55082 
AGGGAT -1.0058 -0.79548 -0.17665 0.48658 -0.34996 1.0314 -0.33955 0.30531 -1.005 -0.0964 0.5273 -0.40994 -0.62943 0.38469 0.22651 -0.32843 -0.75041 0.16098 -0.42366 -0.63293 0.80961 0.0044224 -0.035032 0.20824 0.19181 -0.73749 -1.2956 0.45522 0.093545 0.83317 0.091082 0.82805 0.030555 -0.14694 0.47917 0.56614 0.80795 -0.11584 0.34885 -0.49921 0.033548 -0.080306 -0.022638 1.0114 -0.10283 -0.53414 1.2323 0.12669 0.31296 0.14342 
AGGTAT 0.65333 -0.38045 -0.40274 -0.49623 -0.5682 -0.73833 -0.73746 0.14012 -0.72307 0.1833 0.050004 -0.12886 -0.5102 0.17044 0.45779 0.74195 -0.56207 -0.93993 0.25711 -0.35485 -0.19694 0.13737 0.36344 0.24829 0.39572 -2.0479e-05 0.15396 0.15718 -0.28735 0.37222 -0.038522 0.40354 -0.019394 -0.34687 0.32683 0.76469 -0.17819 -0.41481 0.56641 -0.40912 0.33538 -0.057788 0.32873 0.023202 -0.54297 -0.30936 0.13602 -0.89668 -0.30286 -0.093166 
AGTAAT 0.50621 -0.3535 -0.64573 -0.47939 -0.65606 0.37988 0.14499 -0.15908 -0.89513 0.91986 -0.80916 0.076498 0.26659 0.34989 -0.049898 -0.35794 -0.79819 -0.83992 0.6477 -0.16505 -0.60819 0.40659 -0.18663 -0.35099 -0.41994 0.16786 -0.0089268 -0.22031 0.59431 0.18083 0.16505 0.28784 0.42054 0.62035 -0.16486 0.049211 -0.60296 0.21054 0.17598 -0.76826 -0.63859 0.0070849 -0.053487 0.60894 0.41701 0.42654 0.47913 0.29076 0.52335 0.59169 
AGTCAT -0.25824 0.49512 -0.60295 -0.36326 -0.29927 -0.30691 -0.47526 -0.38499 -1.259 0.54709 -0.41382 0.52385 -0.66988 -0.90464 -0.11523 0.10195 0.13448 0.093708 -0.085081 -0.22487 0.36827 0.25024 -0.27885 0.6604 -0.048311 0.060181 0.29162 -0.60199 0.79051 -0.18362 0.53153 0.28711 -0.58111 0.20728 -0.8553 0.12149 -0.33525 0.026008 -0.30027 -0.59968 0.66058 -0.16614 -0.27052 0.17211 -1.1283 0.48865 -0.2448 0.19874 0.57032 -0.11345 
AGTGAT -0.56615 0.19948 0.036644 -0.082429 0.24013 0.17601 -0.31222 0.15176 -0.18284 0.61861 0.10474 -0.10714 -0.0043436 -0.46378 0.16261 -0.8303 -0.30764 -0.35008 0.58785 -0.4075 0.059 -0.50236 0.46417 0.48759 0.69391 0.75794 0.66119 -0.29798 -0.19499 -0.66829 0.36687 0.60348 -0.59372 0.89472 -0.59854 0.79405 0.07159 -0.65096 -0.34465 0.34305 -0.43159 -0.18775 0.55491 0.4435 -0.15097 -0.34336 -1.116 -0.77429 -1.1554 -0.30663 
AGTTAT 0.056685 -0.76048 -0.084607 -0.33698 0.14338 0.7745 0.039599 1.1816 -0.17406 0.92762 0.34267 0.36943 0.062855 0.096389 0.33137 0.38847 -0.27107 -1.2151 -0.11637 -0.028749 -0.39644 0.58627 0.39562 -0.0031118 0.20574 -0.35466 0.85578 0.67382 0.67032 0.26639 0.94677 0.093118 -0.53722 0.42839 0.22485 0.25515 -1.159 0.066809 -0.37136 -0.15772 -0.38669 0.40771 -0.22574 0.22041 0.11308 -0.29203 0.49236 -0.84957 -0.29236 0.094602 
TAATTA 0.46935 -0.50322 0.023555 -0.20004 -0.7477 0.15263 0.75978 0.11229 0.21237 0.85793 0.0057387 0.6343 -0.65251 -0.21415 0.40372 -0.10816 0.34301 -0.46885 0.60355 0.042739 0.043755 -0.10301 -0.065209 0.019177 0.037022 0.58171 0.5507 0.32581 -0.29933 -0.13698 0.46663 -0.70302 -0.12833 -0.23206 0.21151 -0.057098 -0.28097 0.35205 0.30665 0.2143 -0.60595 -0.21989 -0.28298 0.17772 0.065872 -0.22381 -0.79811 -0.24779 0.62849 0.2107 
TATATA -0.84132 0.27393 -0.66404 -0.4259 0.07472 0.45438 0.12123 0.983 0.67021 1.3427 -0.58987 0.056455 0.9903 -0.46189 -0.6698 -0.18545 0.28099 -0.26959 0.10774 -0.036963 -0.16488 -0.27785 1.0593 0.22411 0.67446 -0.0066281 0.39623 0.29379 -0.0031282 -0.17316 -0.15822 -1.0779 1.037 0.39972 -1.0117 -0.087555 -0.51352 0.41917 0.42079 0.26115 1.4562 -0.045319 0.027715 -0.18539 -0.86529 -0.28399 -0.0095063 -0.30529 0.30615 0.1073 
TACGTA 0.16067 0.13609 -0.67218 0.62324 0.38821 -1.0173 -1.6337 0.68315 0.55343 0.61451 -0.51974 -0.72265 -0.18463 -1.2984 -0.46885 -0.22209 -0.11186 -0.14514 1.1227 -0.18261 -0.17902 0.36732 0.05895 0.76106 -0.67125 -0.17742 0.31286 -0.31652 0.17865 -0.54815 0.2567 0.053936 0.60061 0.031827 -0.90454 -0.43794 0.22591 -0.033256 -0.68805 0.10761 -0.33252 0.1536 0.3828 1.1615 0.13953 -0.52795 0.19467 -0.12496 -0.084618 0.066247 
TAGCTA 0.53335 -0.72407 -0.77095 0.10223 -0.074425 -0.17443 0.079565 -0.69985 0.40336 0.55915 -0.14725 -0.20388 0.12384 0.041789 -0.52608 0.29433 0.24022 -0.06317 -0.029122 -0.89172 0.019143 -0.59638 0.23046 1.4912 -0.82676 0.21941 1.1279 -0.29475 0.033944 0.15786 0.14798 0.067627 -0.016153 0.41906 -0.11622 1.3211 0.15615 0.43395 0.68483 -0.18038 0.25996 0.56517 -0.29031 0.27491 -0.1249 -0.25688 1.0742 -0.68339 -0.50462 -1.0092 
TAAATA -0.38401 0.573 -0.051203 0.47349 0.22884 0.42284 0.16564 -0.41985 -0.32204 0.3416 0.29734 0.41567 0.079042 -0.58306 -0.37407 0.20565 0.12378 -0.084199 -0.054244 0.29298 -0.7632 0.57524 0.35619 0.3096 0.10026 0.34386 0.43651 0.30466 0.19389 0.74775 0.83506 0.15332 -0.22962 0.41207 0.11407 0.62844 -0.72598 0.14293 -0.27564 -0.44218 0.34521 -0.46928 0.52888 -0.62867 -0.55358 -0.35886 0.19256 0.20363 0.36069 -1.4265 
TACCTA -0.099927 0.087257 0.91388 0.21146 -1.1977 0.49851 -0.34361 0.26752 -0.55488 1.3396 0.15229 1.1039 -0.0094995 -0.60515 -0.31655 -0.27782 0.22739 -1.6041 -0.23633 0.46834 0.88481 -1.3331 -0.59299 0.06074 -0.65447 0.38799 0.33137 0.52467 0.24428 -0.1343 0.6385 -0.42026 0.49955 0.30736 -0.12172 0.07265 0.0085818 0.95677 0.14613 0.09303 0.66298 -0.41616 -0.16683 -0.20661 -0.76113 -0.74363 0.2963 -0.28108 -0.47551 0.18208 
TAACTA -0.010651 -0.003034 -0.014141 0.0016979 0.011762 0.018297 -0.0035458 -0.0072511 -0.0032523 -0.017828 -0.0084165 -0.017496 0.018687 0.0050174 -0.0032108 -0.0093519 -0.0058569 -0.013973 0.0061164 0.013099 0.0025509 0.019944 -0.0014664 0.0057334 0.0063386 -0.0026615 -0.0098321 -0.0021042 0.012374 0.015844 -0.011387 0.010445 0.006331 -0.01049 -0.0020189 0.018411 0.014095 -0.015831 -0.018156 0.016825 0.0022764 -0.0081963 -0.015614 0.015768 -0.013835 0.0011226 -0.0074483 0.0058513 -0.01651 -0.016956 
TACATA 0.011822 0.0022584 -0.010642 0.00040555 0.0098063 0.0014455 0.011964 0.0039616 -0.01038 -0.015258 -0.019326 0.017516 0.00017173 0.018759 -0.015524 0.018129 0.013184 0.014066 -0.00066197 -0.019744 0.00054414 -0.00043681 0.0066556 0.012245 -0.014175 -0.013119 0.014922 -0.0033591 -0.017073 0.01683 0.0085358 -0.0058355 0.0011137 0.0063598 0.018466 0.0099501 0.0070893 -0.013334 -0.0055245 -0.0036842 -0.0097384 -0.0036508 0.0064201 -0.00031672 -0.0079726 0.0087095 0.013774 -0.013982 0.0086271 0.0032047 
TAAGTA -0.011569 -0.018304 0.0028772 0.0087827 0.011527 0.0042062 0.001178 0.017362 -0.013586 -0.012614 0.0061474 -0.0092825 -0.019203 0.010898 -0.011924 0.0038021 0.011218 -0.015212 -0.016617 0.0042559 0.0093394 0.019 -0.012836 0.015663 -0.0030176 -0.01232 0.019316 0.015453 0.017461 -0.0074014 -0.0064535 -0.011858 0.0034778 -0.013345 -0.016856 0.015207 0.0042109 -0.016165 0.0091355 -0.013722 0.019461 0.017667 -0.0087912 -0.0061054 -0.010711 -0.013288 -0.007562 0.0077125 0.010241 0.015788 
TAGATA -0.018246 0.0034508 -0.0069697 -0.01709 0.015116 -0.012002 -0.013253 0.0040502 0.0043845 0.0034797 0.015572 0.019 0.010875 -0.011255 -0.0002725 0.0055111 -0.013938 0.0061385 -0.0041023 -0.0015891 0.0089525 -0.011816 -0.0056839 0.0047193 -0.0067073 0.016297 0.013253 0.0083164 -0.0043251 0.0015433 0.0053286 0.016518 0.013248 -0.012611 0.016418 -0.0058503 0.008953 0.00020726 -0.003045 -0.00028271 -0.013263 0.014012 0.018873 -0.018823 0.0031563 -0.010535 -0.0079455 0.015451 0.01452 -0.0026407 
TTATAA 0.50818 -0.27397 0.22538 0.74311 -0.17224 0.025932 0.32284 0.57115 0.34341 0.34902 0.20798 -0.081711 -0.62801 -0.37726 0.11408 0.096848 -0.19306 -0.34795 0.26906 -0.16002 0.4663 -0.27334 -0.24337 -0.68718 -0.46596 0.17889 0.32064 -0.058468 0.032083 0.038881 0.087042 0.31814 -0.34085 0.43388 -0.043281 -0.37229 0.24737 -0.43661 -0.14742 -0.44029 0.27086 0.44087 -0.17665 0.37446 -0.97737 0.10818 0.47318 0.03559 -0.20373 -0.33126 
TTTAAA 0.23821 0.54046 0.35593 -0.050016 -0.10319 -0.52983 -0.31646 -0.023722 1.6492 -0.18633 0.24627 0.12388 -0.12049 -0.5324 -0.14625 -0.6954 1.1083 -0.15411 -0.15404 -1.153 0.088533 -0.22678 -0.11145 -0.66739 -0.1965 -0.30739 0.29534 -0.84056 -0.47862 -0.24863 -0.046614 0.58342 0.013698 0.70725 -0.039545 0.30825 -0.011004 0.37738 0.15061 0.30109 -0.084247 -0.51046 0.27658 0.54303 -0.76189 -0.9534 -0.53551 -0.80496 -0.54577 0.17705 
TTCGAA 0.38382 0.015677 -0.71401 0.15538 -0.31796 -0.16036 -0.93457 0.35612 0.17366 -0.11837 0.94184 0.15945 -0.56116 0.26446 -0.26359 0.19342 0.46846 0.10189 0.70156 -0.21351 -0.75405 -0.10751 0.47018 -0.63053 0.11153 0.073926 0.556 -0.57238 0.24832 0.2457 -0.3782 0.019823 -0.79535 0.63231 0.92153 0.73847 0.31675 0.59988 0.30079 -0.37745 0.38444 -0.67037 -0.44918 0.035855 0.039998 0.03358 0.14763 0.11116 0.62829 0.062189 
TTGCAA 0.25263 0.12354 -0.33704 -0.032344 0.0086087 0.18049 -0.68311 0.24356 0.58883 0.73023 0.35362 -0.14876 -0.91877 -0.35027 -0.29087 0.47161 0.047643 0.34681 -0.78743 -0.11541 -1.076 -0.055018 0.53809 -0.028808 0.43193 0.19895 0.70105 -0.40926 0.1537 0.049241 0.044122 0.38722 -0.58681 0.30504 0.52656 -0.056976 -0.99631 -0.56195 0.053609 0.45433 0.46968 -0.21444 0.21761 0.27594 0.22903 -0.21618 -0.026209 -0.32497 0.50333 1.046 
TTAAAA 0.44573 -0.048484 0.35302 0.16261 -0.48198 1.5304 0.28797 0.47239 0.4331 0.24505 0.21443 0.38619 -0.31603 0.18302 -0.96391 0.70245 -0.40518 -0.3312 0.53541 1.1937 -0.14579 0.62416 0.27346 -0.95696 -0.089017 -0.23263 1.354 0.83798 0.64908 -0.25129 0.071045 0.18175 -0.51408 0.25527 -0.32719 0.96582 -0.007188 0.47978 0.3974 -0.79492 -0.49527 0.084235 0.31834 0.8242 0.0083436 -0.70737 0.67976 -0.25868 -0.057194 -0.31435 
TTCCAA -0.0050717 0.62934 -0.41864 0.36488 -0.28516 0.039395 0.58643 0.96042 -0.057791 0.63792 -0.084298 -0.1395 0.11487 0.040462 -0.85592 0.37183 -0.21582 -0.17828 -0.22734 0.30286 -0.38116 0.26309 -0.18216 -0.13936 0.25174 0.15709 -0.14696 -0.57653 -0.50718 0.12158 -0.16581 -0.63144 -0.17678 0.1903 0.11986 -0.34881 -0.19467 -0.16313 -0.20113 0.28699 -0.57717 -0.025026 0.012483 0.23085 -0.58832 0.096992 0.30701 0.13132 0.29957 -0.58049 
TTACAA 0.001453 -0.013464 -0.012019 -0.01955 -0.0077389 -0.017029 -0.011761 0.012895 -0.0071405 -0.014421 0.01953 0.014155 -0.015369 -0.015957 -0.017887 0.0069334 -0.0082981 -0.00019358 0.014788 -0.0016923 0.0059049 0.0097666 -0.00052537 -0.013243 0.0074283 0.016351 0.014487 0.011097 0.019427 -0.000914 0.0042752 -0.013057 -0.001989 -0.0012367 0.004314 0.00094763 -0.0035044 0.0026768 0.0066388 0.0098323 0.0061779 -0.010406 -0.015107 0.0073165 0.0058124 0.017991 0.0026694 0.014137 0.019379 0.018911 
TTCAAA -0.012931 0.019236 -0.017641 0.0091943 -0.015581 0.0094708 -0.0046767 -0.015745 0.013597 -0.006626 0.016469 0.0031917 0.016659 -0.016905 -0.014527 0.01988 -0.0076428 0.010332 -0.017657 0.0033635 -0.017773 -0.016609 -0.017879 -0.011114 -0.01003 0.0062432 -0.010071 -0.0030489 -0.00060449 -0.017623 -0.019078 0.01741 -0.013827 -0.00047828 0.01616 -0.017825 -0.0080352 -0.0065695 0.010908 -0.006057 -0.014766 0.0026996 0.0039298 -0.017555 0.0086702 0.0095795 0.018121 -0.00047217 -0.012926 0.014838 
TTAGAA -0.00053167 0.012947 -0.011872 0.0015666 -0.012946 0.012215 -0.013573 -0.010766 -0.0045757 0.018602 -0.0074506 -0.0065779 -0.017467 -0.011288 -0.0062907 0.0070624 0.0080016 -0.0069255 -0.010048 -0.011502 -0.012408 0.0017548 0.012062 0.015259 0.014023 -0.0055856 -0.0044591 0.0084164 -0.012423 -0.0085837 -0.0044318 0.0064808 -0.0073193 -0.009266 -0.010984 0.017514 0.0034797 0.0075365 -0.011615 0.014499 0.010627 0.016771 0.012292 0.018661 0.0056383 0.010927 -0.011203 0.013291 -0.014582 -0.0010957 
TTGAAA 0.003295 0.0069455 0.0026912 -0.011091 -0.019578 0.00058073 -0.0028168 0.001207 -0.011251 0.019308 0.0020322 -0.019319 -0.004627 -0.0090082 -0.004005 0.0098368 0.00062905 0.019463 -0.0049597 0.0060614 -0.012241 -0.0073602 0.0039323 0.016547 -0.0056966 -0.0053848 -0.0024155 0.0010569 -0.0096731 0.0073124 0.010225 0.015278 -0.0047875 -0.0043961 -0.012789 0.007201 -0.015781 0.00079201 0.0062736 0.00073866 0.0029127 0.0094814 0.018528 0.0077341 0.009486 0.0017023 0.017517 0.016344 0.0097432 0.0052458 
TCATGA 0.18285 1.1264 0.56624 -0.29155 -0.32594 0.17465 0.4716 -0.23045 -0.4203 0.090096 -0.45275 0.34833 -0.016965 0.84867 -0.66531 -0.094921 0.074954 0.052097 0.51803 -0.72586 -0.2129 -0.6445 0.4143 0.38307 0.28021 -0.50466 -0.16362 -0.0094977 -0.42221 -0.15693 -0.35277 0.098554 -0.53825 0.75255 -0.61504 0.36739 -0.14076 0.097965 -0.16849 -0.50928 0.13842 -0.53775 -0.24485 -0.18176 -0.48871 -0.41234 0.56785 -0.49805 -0.12799 -0.098399 
TCTAGA -0.92502 -0.10209 -1.0541 -0.69603 -1.232 1.0206 -0.68613 0.015691 0.55404 -0.086243 0.26992 -0.32599 0.14985 0.24717 -0.18915 1.1672 1.2269 0.027114 0.26093 -0.45896 0.053952 0.47868 0.26172 0.12222 -0.24782 0.81712 -0.83464 0.21768 0.11621 -0.4488 0.4748 -0.97636 -0.3354 0.021852 -0.24857 -1.1277 -0.53309 0.15134 0.82282 0.36293 -0.11577 -0.33438 -0.76161 -0.16905 -0.14817 0.25958 -1.0313 0.36611 0.96042 -0.84194 
TCCGGA -1.0186 -0.10958 0.38754 -0.040645 -1.1567 0.17485 0.36829 0.23483 -0.72534 0.64349 -0.51161 -0.93179 0.18268 -0.61255 -0.48424 -0.54154 -0.11748 -0.40902 0.3001 -0.79868 -1.012 0.42352 -0.7362 -0.42643 0.52564 0.20062 0.61215 -0.53232 -0.36691 -0.35138 0.56276 -0.57702 0.13486 -0.65254 -0.12638 -0.23599 0.17664 -0.42567 0.6308 0.20791 0.79409 -0.26164 0.38085 -0.34085 -0.6302 -0.70016 0.33529 -0.65998 -0.021579 -0.0044598 
TCGCGA -0.24808 -0.5608 -0.33547 0.062074 -1.0722 -0.48771 0.32944 0.10008 0.56621 -0.10364 -0.80701 0.56665 0.7049 0.90236 -0.81751 0.047638 -0.10241 0.23277 -0.67358 0.12792 0.63786 0.66374 -1.2272 0.82536 0.26791 0.36028 -0.50161 -0.10795 -0.2033 0.26663 -0.34589 0.4154 -0.49423 0.51596 -0.14604 0.36462 0.41792 -0.60968 0.12352 -0.41519 -0.083815 0.059908 -0.88922 -0.16549 -0.22544 -0.22569 0.64457 0.42797 -0.23303 0.50623 
TCAAGA 0.85231 -0.3532 0.7449 -0.053032 0.030217 0.23839 -0.14888 -0.26914 -0.6673 -0.1001 -0.78302 0.51694 0.23651 0.27419 0.43196 -0.52905 0.24021 -0.022543 -0.52016 -0.088255 -0.077688 0.62632 -0.357 0.47323 -0.31159 -0.72254 0.29168 -0.36439 -0.058326 -0.58048 0.80595 -0.51459 0.16358 0.49941 0.36935 -0.29435 -0.92196 -0.41916 0.87188 -0.69178 -0.86986 -0.23828 -0.091023 -0.51913 -0.58128 -0.33525 -0.21821 -0.3604 -0.59766 -0.4873 
TCCCGA -0.24752 0.21869 0.44899 0.38382 -0.65126 0.46899 -0.72217 0.27862 -0.23697 0.26566 0.048543 0.20943 0.78695 0.48135 -0.50118 -0.17553 0.082442 0.42719 0.13432 -0.20413 0.18759 -0.78641 -0.76392 0.38553 -0.02064 0.47116 0.22608 -0.58208 -0.16727 0.066152 -0.82094 -0.069135 -0.48129 -0.8934 -0.25459 -0.29039 0.6054 0.73489 -0.70905 -0.32779 -0.30251 -0.67191 0.044699 -0.55247 -0.17599 0.055147 0.94084 1.0488 -0.33513 0.16284 
TCACGA 9.29e-05 -0.011637 -0.007491 0.014715 -0.0021815 0.0072728 0.010609 -0.019266 -0.014409 -0.0016399 0.0061468 -0.004487 -0.005575 -0.01473 0.015683 -0.0081253 0.0080968 0.011704 0.01153 0.014501 0.017861 -0.017976 0.0017412 -0.003859 -0.0093307 0.0092812 -0.0053173 -0.016856 -0.0055742 -0.0014026 -0.013915 0.01859 0.018382 -0.010114 -0.010101 -0.019211 9.4457e-06 -0.012483 0.00027874 0.017352 -0.0070092 -0.002196 -0.0056679 -0.00045692 -0.0057867 0.012119 -0.014479 -0.017904 0.0049107 -0.0047243 
TCCAGA 0.012818 -0.0030563 -0.0088725 0.0063282 0.0075209 -0.014814 0.0034414 -0.017077 -0.0017803 -0.014074 -0.0016823 -0.0079874 0.010265 0.0020734 -0.015631 0.014688 0.019571 0.017184 0.014395 0.014203 -0.016577 -0.0069043 0.01257 0.012685 -0.012538 -0.0057777 -0.017721 -0.011249 0.0094226 0.015641 0.0070948 -0.00049086 0.017763 -0.013153 -0.003148 0.0044043 0.018843 -0.014987 -0.0031726 -0.01059 0.013067 0.011795 0.0011216 -0.0025259 0.016625 -0.0070074 -0.010614 0.0021531 -0.0086992 -0.0072325 
TCAGGA 0.014202 0.00091437 0.018023 0.013524 -0.011299 0.0079598 -0.012193 0.00546 -0.012089 0.013196 -0.01948 -0.012297 0.0090355 -0.0007228 -0.0091314 0.0043366 0.011137 0.0039298 0.011916 -0.016379 -0.017091 0.012234 -0.014816 0.0094985 0.0011263 0.015424 -0.0051579 0.0070749 -0.018421 -0.0047182 -0.018269 -0.0071387 0.0035209 -0.016839 -0.014892 -0.0071704 -0.0054328 -0.0060683 -0.0020752 0.015975 -0.010197 -0.014244 0.015133 0.0079878 0.011839 0.010669 0.011215 -0.017973 0.0014727 0.013313 
TCGAGA 0.013509 0.016909 -0.018923 0.0037176 -0.0053076 0.0016189 -0.0011306 -0.01976 0.00068174 0.0013619 0.018583 0.01051 -0.019629 -0.0090765 0.017255 -0.00060906 -0.014392 -0.010308 -0.0011533 0.010246 -0.019028 -0.016749 0.011609 0.0085111 -0.0097752 -0.0081633 0.017411 -0.011761 0.016719 -0.019208 0.0090085 -0.0077668 0.0022606 0.01442 -0.0023758 0.010805 0.0010297 -0.0092542 0.0097122 -0.019621 -0.019393 0.008148 -0.0028483 -0.0026244 0.01426 0.0015799 0.013171 -0.0072861 -0.018237 -0.011946 
TGATCA 0.043577 0.52668 -0.1778 0.14052 0.20514 0.49054 -0.076781 0.18793 -0.21993 -0.46565 -0.5243 -0.17176 -0.90816 0.17426 0.31067 0.12039 -0.74935 0.15675 0.74614 0.003951 -0.20179 -0.19945 0.11976 -0.37987 -0.13892 -0.14599 -0.0082294 -0.18017 -0.15363 -0.65639 -0.5543 -0.072271 -0.10985 0.3309 -0.019005 0.15268 -0.064568 -0.32987 0.3166 0.20005 -0.56951 1.2034 -0.17041 -0.021926 -0.20134 -0.3758 -0.093975 -0.58468 -0.51856 0.64626 
TGTACA 0.47072 -0.06466 0.060146 -0.72851 0.41434 0.58576 0.36883 -0.48895 -0.46225 -0.039333 0.086575 0.37416 -0.038216 -0.39124 -0.02868 0.31132 -0.378 0.10659 -0.21976 1.051 -0.55983 0.54269 -0.08525 -0.028164 -0.57158 -0.28098 0.13037 -1.5311 -0.86153 -0.33931 -1.1891 -0.5234 0.1883 0.04896 -0.13634 -0.13061 -0.14977 0.13922 -0.79263 -0.011881 -0.29229 -0.10656 -0.45589 -0.93724 -0.88829 0.026671 -0.26501 0.3193 0.29938 0.54536 
TGCGCA -0.66841 -0.39039 -0.17992 -0.50713 1.1662 0.76909 -0.4286 -0.69075 0.028841 -0.29554 -0.84959 -0.14059 -1.0914 -0.041476 -0.39631 -0.23629 -0.56651 0.71297 0.023399 0.57572 -0.52798 0.043115 0.43319 -0.79129 0.7999 0.059841 -0.77035 -1.3498 0.56607 0.89895 0.38584 -0.14379 0.06557 -0.37226 0.48059 0.99131 0.22295 -0.27573 -0.37815 -0.16921 -0.70761 -1.2239 0.46909 0.28169 0.074019 -0.76745 0.28724 -0.11124 0.17081 1.2706 
TGGCCA 0.33795 -0.27561 0.0096098 0.69703 1.1006 -0.34478 -0.13733 -1.1356 -0.28619 0.54143 -0.009527 -0.37038 -1.0586 0.22197 0.67092 0.03746 0.1073 -0.57245 -0.31369 -1.0103 -0.95561 0.33957 0.31645 -0.02684 -1.1833 -0.0076829 0.99289 0.42317 -0.0027644 -0.27269 -0.93509 -0.81814 -0.020914 0.46527 0.2858 0.092598 -0.38808 0.1107 -0.079198 -0.55104 0.90456 0.48429 0.53573 -0.26301 0.083734 -0.314 1.0039 -0.11643 -0.71088 0.058281 
TGAACA 0.86532 0.038169 0.23461 -0.40672 1.1573 -0.046001 -0.088233 -0.075951 0.31626 -0.41469 -0.056209 -0.81369 -0.3708 1.3247 0.32423 0.059006 0.16273 0.0061604 0.23988 0.086782 -0.43361 -0.022945 -0.46456 -1.1329 0.072061 0.045415 -0.2905 0.049837 0.017807 -0.17298 0.74205 -0.53271 0.5362 0.52348 -0.054489 0.0070388 -0.21047 0.16508 -0.54398 0.02075 -0.49097 -0.51243 0.10881 0.26471 -0.74104 0.31279 -0.65689 0.59299 0.060924 0.0040488 
TGCCCA -0.32569 -0.20631 0.40805 0.41775 0.39495 0.42285 0.85247 0.72134 0.45964 -0.041308 -0.73624 0.40551 -0.17648 0.02961 0.42689 0.45519 -0.072111 0.26112 -0.33094 1.0091 -1.4848 0.59229 -0.52206 0.95807 -0.50274 0.39471 -0.5348 -0.65856 -0.17873 -0.24302 -0.88826 -0.37673 -0.11492 1.0636 -0.035042 0.77096 0.73608 -0.04133 0.20821 0.14258 -1.0337 -0.014333 -0.55131 -0.29697 -0.82996 -0.83859 0.2256 0.51711 -0.26387 1.4775 
TGACCA 0.004717 0.016377 0.017601 -0.015881 -0.016622 0.017611 0.0078986 0.018948 -0.0052847 -0.0024208 0.01327 -0.0072705 0.005825 -0.018516 -0.012997 0.017287 -0.011695 0.011522 -0.0021187 0.013652 -0.0057551 -0.018237 0.018063 0.010111 0.01615 0.011044 -0.018106 0.0026344 -0.015093 0.0077046 -0.015109 -0.0026027 -0.016186 -0.0032738 0.0046257 0.018438 0.017296 -0.0098074 0.019083 0.018212 -0.0089985 0.003087 0.0041846 0.018011 0.0061178 0.014006 -0.0056458 0.0034999 0.0068682 0.011313 
TGCACA 0.0076791 0.0089852 0.019563 0.014088 0.018441 -0.0092568 -0.0091393 0.01246 0.0011875 0.0095389 0.0046709 -0.019861 0.00082217 -0.017908 0.00034758 -0.010686 -0.012285 0.01259 -0.0067659 -0.015675 0.0029844 -0.01921 -0.0094834 -0.00081187 -0.019664 -0.009297 -0.013524 -0.00054999 0.012347 0.012598 0.0045599 0.00097461 0.012382 0.016433 0.01338 0.0088795 0.010993 0.010638 0.015807 0.0065324 0.0070739 0.017724 0.0060725 -0.0192 -0.012272 -0.00081615 -0.010745 -0.0094917 0.0095457 -0.0057129 
TGAGCA -0.012477 -0.0021125 0.0074485 0.00067735 0.015839 0.0014495 -0.019133 0.012809 0.013974 -0.0044956 -0.00071985 0.0024718 0.011395 0.018903 -0.014705 -0.014303 -0.00013438 -0.007107 0.00054357 -0.019348 -0.0149 -0.0016083 -0.0051089 0.016379 -0.018271 -0.0040987 -0.018746 0.0020808 -0.016124 0.017635 0.0037442 0.0051848 0.018762 -0.0080501 -0.00073546 -0.0075312 0.001238 -0.012018 -0.017264 0.019861 -0.011026 -0.0090851 0.01689 0.0029255 0.0030634 0.00016275 -0.010382 -0.0057303 -0.0023945 -0.016784 
TGGACA -0.0016427 0.002452 -0.01572 -0.013661 0.018241 -0.0092074 0.0058657 0.012628 0.010127 -0.01221 0.015747 0.002176 0.013879 0.0080974 0.015363 0.0076007 -0.0053038 -0.0042282 -0.016512 -0.0168 0.014257 0.019019 0.003126 0.019873 0.006269 -0.0065981 -0.010439 -0.0022915 0.005703 -0.017735 -0.006345 0.014846 -0.016557 0.0080258 -0.011468 -0.0039742 -0.0065799 0.012038 -0.010792 0.0016214 0.010452 -0.012767 0.0095921 0.006092 -0.015725 -0.019598 0.010878 -0.0132 0.01114 0.001846 
TAAAAA -0.18748 0.34106 0.12978 0.44952 0.121 -0.21092 0.75006 0.57802 0.21743 0.93732 -0.10141 0.067786 -0.44553 0.19006 0.41829 0.59227 -0.81198 -0.89552 -0.80391 0.22081 -0.26841 0.20616 0.6953 -0.63457 0.99761 0.53465 -0.20642 0.46238 0.18342 -0.28685 0.76943 -0.54104 -0.20386 -0.049413 -0.00080715 -0.33546 0.11802 -0.25841 -0.0066632 -0.11592 -0.10976 -0.27363 0.019464 -0.12952 0.080101 0.26369 0.16172 -0.93043 0.14113 -0.17416 
TAACAA 0.15591 -0.024821 -0.31641 0.27194 0.2929 -0.039174 0.26874 -0.26059 0.24428 0.52007 0.67923 0.22369 -0.15804 -0.69452 -0.73213 -0.14216 0.38964 -0.58487 -0.49249 -0.10685 -0.18335 0.79246 0.57087 -0.32986 -0.034104 0.50216 0.46608 0.322 -0.59365 -0.46779 0.78879 0.33821 1.0892 0.30243 -0.74484 0.50448 -0.015577 0.13397 -0.36041 -0.52196 -0.43354 -0.0095977 -0.086449 0.891 0.25246 0.067373 0.97485 0.60688 -0.59717 -0.1317 
TAAGAA -0.26246 -0.59046 -0.88702 -0.29973 0.014952 -0.25177 -0.085866 -0.59523 0.24327 0.36533 -0.33032 1.056 0.4807 -0.58806 -0.33276 0.45154 0.47159 -0.065945 0.2028 -0.80595 -0.61166 -1.1851 -0.39304 -0.49487 -0.00089104 -0.25008 0.15476 0.68472 0.75966 0.16348 0.014646 -0.69813 -0.20708 0.35524 -0.42039 0.78749 -0.65443 -0.03796 -0.95965 -0.23385 -0.094863 -0.45858 -0.79957 -0.27106 0.11577 -0.32128 0.0032437 -0.37211 0.28271 0.46866 
TAATAA -0.39405 0.26506 -0.010944 0.63294 -0.19849 0.025852 -0.062275 0.25987 0.46078 0.25722 0.29068 -0.084523 -0.61341 -0.23455 0.039551 0.4289 -0.66719 -0.012576 -0.1155 -0.1665 -0.19341 0.017638 0.078521 0.66998 -0.54029 0.51636 0.12721 -0.31286 -0.36784 0.14693 0.65183 0.060289 0.46799 0.34464 -0.90177 0.32366 0.051023 0.15426 -0.23451 0.2067 -0.52857 -0.12307 -0.11972 -0.26874 0.122 -0.0054345 -0.30961 0.39604 0.47837 -0.041355 
TACAAA -0.092724 0.084947 0.36794 -0.36064 -0.36442 -0.40817 -0.35612 0.014701 0.70308 1.1823 -0.37638 -0.076907 -0.59968 -0.65994 -0.23397 0.7946 0.18561 0.26025 0.066659 -0.65761 -0.20149 -0.50698 0.50167 -0.17426 0.80504 -0.56223 0.34967 0.16923 -0.10731 -0.25861 -0.18082 0.50295 0.10241 -0.50368 0.04298 -0.12103 0.29562 -0.61084 0.27304 0.043406 0.21887 -0.16959 -0.2031 0.10145 -0.48605 1.0883 0.20749 -0.11598 0.57232 0.60145 
TACCAA 1.0944 -0.28354 0.18044 -0.33088 0.82415 0.010566 -0.35853 -0.47567 -0.12673 0.32271 0.11647 -0.40963 0.19725 -0.24632 -1.0858 0.26224 -0.88004 -0.34709 0.50739 -0.2814 0.3677 -0.39667 -0.13333 -0.23082 0.35376 -1.252 0.74445 -0.11558 -0.45109 -0.29528 0.82812 0.88965 -0.07771 -0.087367 0.051723 -0.16646 0.34887 1.0691 0.18622 0.21555 0.35461 -0.39373 0.18473 0.65002 -0.35135 0.084173 0.31713 0.25901 -0.15141 -0.48292 
TACGAA -0.11256 -0.040754 0.26085 0.54236 0.4618 0.43588 0.35929 -0.25293 0.05076 -0.014646 0.21204 -0.70044 0.11125 -0.98222 -0.76495 -0.40841 -0.055402 -0.18474 -0.62972 -0.77691 -0.40277 0.95948 -0.46471 0.7153 -0.12588 0.66028 0.069116 -0.98233 0.25166 0.24677 0.55918 -0.055641 -0.12235 0.89792 -0.057453 -0.33759 -0.62761 -0.15495 0.13267 -0.14831 0.0073875 -0.23937 -0.64517 0.28229 0.33991 -0.053189 -0.33287 -0.031984 0.27745 -0.10541 
TACTAA -0.31843 -1.0161 0.30643 -0.49663 0.14333 -0.030063 0.51598 -0.024952 0.46183 0.098276 -0.40431 0.32911 0.071977 0.55424 -0.9818 -0.32395 0.13109 -1.0118 0.42898 0.014252 -0.1178 0.053794 0.16228 -0.31599 -0.4729 0.34631 -0.21728 0.020084 0.095117 -0.53705 0.68132 0.25535 0.60712 0.48047 -0.71961 0.6031 -0.24162 -0.28989 0.0025706 -0.11655 0.40993 0.56519 -0.33044 -0.10998 -1.3569 -0.39754 0.31727 0.63396 -0.59411 0.24522 
TAGAAA 0.22423 -0.38601 0.38044 0.026715 -0.83563 0.23103 -0.36333 0.54973 -0.16603 -0.34544 0.42087 -1.0258 0.071421 -1.0239 -0.030567 -0.098767 0.98808 -0.30625 -0.26754 -1.4607 0.070658 0.26674 0.4943 -0.73326 0.61906 0.12587 0.39848 -0.25954 0.27685 0.19042 0.12142 -0.84129 -0.72985 0.55081 -0.39782 1.139 -0.17381 0.73095 -0.26921 0.45518 -0.62428 -1.347 0.06506 0.13949 -0.51281 -0.23549 0.45803 0.77663 0.58958 0.4016 
TAGCAA -0.70304 -1.3013 0.74113 0.8173 -0.55812 -0.096064 -0.18861 0.53349 -0.55803 -0.14179 -0.09317 0.41054 -0.44994 -0.87343 -0.57546 -0.20723 -0.0049007 -1.0301 0.13094 -0.3123 -0.78772 0.51697 -0.10326 -0.21455 0.47688 -0.38409 0.089202 -0.357 0.033689 0.26076 0.79176 0.79088 -0.050863 0.13924 -0.24357 0.18938 -0.66723 0.9215 -0.32539 -0.54179 -0.0035948 -0.58146 1.3036 0.11801 -0.894 -0.45311 -0.078153 0.30389 0.16335 -0.75111 
TAGGAA 0.62895 0.86831 -0.34566 0.079105 -0.024615 0.68079 -0.49017 0.63237 0.045463 -0.018192 -0.7201 -0.6657 -0.36168 -0.3995 -0.85167 -0.38019 -0.66519 -0.2346 -0.027618 -0.84431 -0.1957 0.11727 0.50135 -0.3509 -0.080885 -0.52803 -0.32482 -0.19477 -0.24202 0.51605 0.92643 -0.01124 0.44811 0.85009 -0.033172 -0.05066 0.16249 0.48514 0.59494 -0.59895 -0.30655 -1.4051 -0.11716 0.15358 -0.48613 0.21754 0.19604 0.72116 -0.12581 -1.1467 
TAGTAA 0.62073 0.76112 -0.15229 0.19283 0.70591 0.04196 0.31649 0.70912 -0.90241 -0.035552 0.1818 -0.57165 0.28169 -0.43701 -1.0706 0.055425 -0.48533 -0.38492 0.7883 0.39462 0.27117 0.84336 0.73354 0.17247 0.90407 0.20963 -0.53251 -0.46996 -0.061144 0.88564 -0.31045 -0.39289 0.11703 -1.2655 -0.73259 1.3772 0.37182 -0.49843 -0.69933 -0.72653 -0.26769 -0.78532 0.20923 0.12794 -0.38633 -0.24231 -0.047307 0.77121 0.14636 -0.23695 
TATAAA 0.61645 0.15946 -0.79358 0.46126 -0.53502 0.26232 -0.30014 0.58591 0.49895 0.57396 0.073696 0.062011 -0.3731 -0.36093 -0.46108 0.47734 0.089223 -0.69433 -0.67216 -0.26674 0.5962 0.62581 -0.53974 0.79839 -0.1325 -0.43843 0.09518 -0.1352 -0.56105 0.083444 0.24767 -0.83128 -0.29754 -0.31824 0.099096 0.74472 -0.030697 0.82037 0.37777 -0.073585 0.045825 0.17354 0.17912 0.29415 -0.51768 0.083244 0.4128 0.38228 0.041604 0.20752 
TATCAA 0.85862 0.47728 1.0217 0.048421 -0.13677 0.5951 0.46514 0.21851 -0.13409 0.21498 0.12296 -0.48864 -0.13544 -0.20284 -0.13128 0.03266 1.3237 -0.21376 -0.38326 0.020587 -0.76041 0.11145 0.25645 -0.26488 0.29784 0.053401 0.45303 -0.15087 -0.34581 -0.037811 0.64758 0.68001 -0.37399 -0.40224 0.10655 -0.02161 -0.93912 0.70639 -0.12524 0.01626 -0.088664 -0.78471 -0.0086276 0.16713 -1.0637 -0.18549 0.51211 -0.12128 -1.1838 0.51411 
TATGAA 0.012832 -0.4694 -0.007966 -0.026556 0.015931 -0.27319 -0.6924 0.17307 -0.2856 0.28439 0.26665 -0.13275 -0.34256 -1.0267 0.44877 0.24964 -0.61387 -1.0464 0.01081 -0.4162 0.046082 -0.42721 0.36272 -0.10119 -0.16163 0.18859 0.16231 -0.49814 -0.2403 0.50562 0.041085 0.071598 -0.66356 0.11553 0.40984 0.57889 0.8399 -1.3628 -0.3448 -0.46235 0.89631 0.35558 0.04071 -0.26901 -0.29877 -0.077902 -0.46626 0.27167 -0.095468 0.29526 
TATTAA -0.11317 -0.68124 0.11281 0.094468 -0.14394 0.4415 0.33877 -0.16979 0.62274 1.0462 -0.15911 0.41712 -0.90607 -0.70252 -0.093216 0.080076 0.0036323 -0.066465 0.70102 0.93661 -0.040863 -0.43549 0.7113 0.079675 -0.49928 -0.44908 0.51877 -0.10981 -0.20949 -0.35984 -0.099689 0.10686 0.1338 0.17481 0.096489 0.37312 -0.48908 0.32067 0.33095 -0.3529 0.19247 -1.0025 -0.62911 0.1721 0.021613 -0.44314 -0.13659 0.22729 0.21145 -0.40162 
TCAACA -0.73588 -0.38066 -0.55276 -0.00063491 -0.41982 -0.073256 -0.10608 0.42007 0.44956 -0.94004 -0.69983 0.66279 -1.1954 0.0040049 0.33241 0.06072 0.18278 0.18367 -0.82153 0.4327 0.17043 -0.65614 0.25984 -0.24077 -0.32947 -0.42565 -0.4311 0.091788 0.25793 -0.2693 -0.40274 0.32458 0.28879 -0.73808 -0.30983 0.766 -0.61543 -0.60666 -0.77666 0.28275 -0.49855 -0.58627 -0.65636 0.41379 0.31632 -0.093226 -0.018253 0.827 0.2155 -0.64996 
TCACCA 0.12382 0.22892 0.65143 -0.97095 -0.33897 -0.2983 0.13073 -0.37212 0.51774 0.30425 -0.84802 -0.1484 0.15025 -0.16357 -0.37391 -0.30509 -0.24919 -0.059682 0.19255 0.13949 -0.59125 0.0012299 0.73494 -0.40823 0.64652 0.80734 0.71787 0.94749 -0.074799 -0.2088 0.45017 -0.60456 0.7473 -0.14302 0.060315 0.49104 -0.014545 -0.57382 0.38445 0.11315 -0.5429 -0.41247 1.2299 -0.045651 -0.41656 0.37753 0.21902 0.40539 -0.8901 -0.68215 
TCAGCA -0.4533 0.059784 -0.19496 -1.3002 -0.64912 -0.29249 0.41303 0.71184 0.26861 0.77043 0.13359 -0.54987 0.68899 0.50839 0.2458 -0.071208 0.23413 0.21035 0.14081 0.10812 0.14814 0.16971 -0.10019 0.30956 0.32722 1.1044 -0.66083 -1.3712 -0.95233 -0.61848 0.55202 -0.42991 -0.21017 0.20496 0.043979 0.7876 0.05487 -0.39194 0.16421 0.54117 -0.56612 -0.47741 0.083155 -0.045285 -0.46128 0.32875 -0.19638 0.39675 -0.53553 0.094322 
TCATCA 0.39339 0.86838 0.046502 0.3782 -0.23547 0.3068 -0.099918 0.41795 -0.2218 0.28266 0.40553 -0.84718 -0.33914 0.89192 -0.11754 -0.20412 -0.067286 -0.58227 -0.73766 0.66419 -1.082 -0.48248 -0.46522 0.47981 -0.81668 -1.3431 -0.3771 -0.055524 -0.073461 -0.4012 -0.43455 -0.042101 0.622 0.82052 0.29196 0.41998 0.20471 0.28171 -0.28548 -0.66083 0.063762 -0.021276 -0.46066 -0.02701 -0.43317 -0.45807 -0.2063 0.72148 0.5155 -1.0238 
TCCACA 0.13884 -0.67326 0.86327 0.17778 -0.21935 1.3671 0.35739 -0.48334 0.33605 0.37581 -0.80558 -0.25881 -0.80645 0.25773 0.54582 0.80702 -0.62799 0.21937 -0.64727 -0.747 -0.39111 0.14914 -0.6557 0.91497 -0.55957 0.1974 -0.044489 0.13978 0.11234 -0.18987 -0.5119 1.4047 -0.011357 0.35793 0.34762 0.052056 0.44988 -0.18158 -0.02318 -0.45541 0.22203 0.19339 0.086939 -0.12207 0.31099 0.40738 -0.58312 -1.267 0.51178 -0.31723 
TCCCCA 0.092055 -0.11781 -0.12838 0.34824 -0.60084 0.088672 -0.14367 -0.21326 0.06985 -0.061879 0.53171 0.73009 -0.61484 0.28711 -0.68654 -0.66525 -0.82038 -0.98272 0.15014 0.20004 0.74093 0.4427 -0.46026 0.14585 0.10839 1.3335 1.1424 -0.064182 -0.62444 0.37396 0.029189 -0.17529 -0.14206 -0.038998 -0.57442 0.5072 0.17017 -0.03812 0.39184 -0.44155 -0.4725 0.029633 0.60758 -0.37301 -0.17538 -0.32204 -0.90312 0.36795 -0.16826 -0.26226 
TCCGCA 0.16055 -0.1508 0.058976 -0.16636 -0.25305 0.1936 -0.66583 -0.23782 0.55822 -0.24591 -0.0016493 -0.06098 0.33726 -0.2128 -0.1414 0.047842 -0.66452 0.71189 -0.22281 -0.48116 -0.5426 -0.084415 0.29071 0.080528 -0.051061 0.46963 0.93265 -0.45823 -1.5028 0.95864 0.36137 -0.040573 -0.10234 -0.5151 -0.063543 0.47129 -0.26858 0.12724 -0.54896 0.25042 -0.05442 0.35136 -0.69432 -0.14729 0.73653 0.19416 -0.57905 -0.027173 -0.15739 0.29803 
TCCTCA -0.24374 -0.81826 0.063465 -0.44682 -0.40046 0.23162 -0.1118 0.045157 0.32978 -0.69034 0.18319 0.30092 -0.58827 0.10068 -0.15891 0.42391 -0.20531 -0.40866 -0.49053 0.21254 -0.69927 -0.043105 -0.12976 -0.40908 -0.25799 0.098952 0.4193 -0.25255 -0.65757 0.31045 0.34599 0.40771 -0.55077 -0.30544 0.53222 0.34548 0.092938 0.37445 -0.95934 0.48652 -0.17327 -0.89921 -0.12477 -0.58204 0.15827 -0.27571 -0.10591 0.020553 0.62529 0.45988 
TCGACA -0.48718 0.62807 -0.018146 0.15702 0.51554 0.15909 -0.011952 -0.014836 0.0045191 -0.050688 -0.0048715 -0.5678 0.043 0.16064 -0.32773 0.10908 0.092983 0.12379 1.0513 -0.26753 0.15514 -0.0653 -0.37395 -0.40303 -0.14642 -0.52057 0.029959 -0.51167 -0.4718 -0.02087 -0.83145 -0.77026 0.080202 -0.23796 0.067001 -0.72223 0.47036 -0.53301 0.42688 0.027856 -0.03344 -0.0016281 0.95181 -0.32184 -0.2765 0.63653 -0.11204 0.45459 1.0665 0.40082 
TCGCCA -0.90807 0.92073 -0.7819 1.2426 0.050887 -0.034136 0.36761 0.36486 -0.39681 -0.29595 -0.47676 -0.53491 -0.037183 -0.0068527 -0.16823 0.52671 0.49337 0.017815 0.98244 -0.24889 -0.91236 -0.37704 -0.91054 -1.1711 -0.20744 0.23647 0.055354 0.22974 0.38299 0.4214 0.54401 0.89212 1.0945 -0.9738 0.37035 0.53629 -0.19096 0.72268 0.17946 0.0090783 -0.60607 -0.031999 -0.058901 0.62383 0.40755 -0.62241 0.65781 -0.20449 -1.0488 -0.31782 
TCGGCA 1.173 0.83957 1.0442 -0.63612 -0.067753 -0.54579 -0.2053 -0.31601 -0.027593 1.0001 0.010412 -0.19471 0.2042 -0.48655 0.1812 0.64529 0.24109 -0.68935 -0.39126 -0.60253 0.19888 0.54993 -0.24922 -0.26524 0.39897 -0.33211 -0.46981 -0.79924 -0.58942 -0.17463 0.33955 -0.56621 0.87258 0.17475 -0.083288 -0.083337 -0.33652 -0.91111 0.01782 0.20732 0.019892 0.25691 -0.45075 -0.14883 -0.40133 0.11441 -0.17061 -0.015291 -0.37368 0.083185 
TCGTCA -0.68142 -0.22733 -0.41447 -0.39121 0.12996 0.01913 -0.6511 -0.08672 0.14355 -0.43516 -0.37345 -0.14729 -0.2801 0.14836 -0.23456 -0.55669 0.46564 0.65781 0.050467 -0.70161 0.08076 -0.087178 -0.62053 -0.67815 -0.44345 0.35526 -0.52972 -0.30196 -0.40492 -0.13812 0.0090886 0.15079 -0.2685 -0.23303 -1.1394 -0.30828 -0.32149 -0.32268 -0.55296 0.084056 0.21586 -0.40173 -0.12681 0.2824 0.38659 -0.45095 -0.40095 0.56732 0.3016 0.30602 
TCTACA -0.96987 -0.033535 -0.14871 0.11793 0.16027 0.039656 -0.2644 -0.1174 0.14804 -0.0081799 0.92132 0.070628 -0.20426 -0.46296 -0.31503 -0.0030026 0.28885 0.24113 0.1223 0.4634 0.62087 -0.22881 0.1104 0.32151 0.56064 0.012327 -0.13393 -0.12572 -0.98889 0.2135 -0.60089 0.79955 -0.91923 0.098183 1.1477 0.48258 -0.60649 -0.22181 -0.87436 -0.81895 -0.46574 0.45305 -0.64375 0.7242 -0.59088 0.2758 0.5398 -0.22804 0.20643 -0.77199 
TCTCCA -0.077637 -0.55181 0.064441 -0.04419 0.13722 0.096223 0.32243 0.63459 0.10094 -0.49787 -0.41097 0.32479 -0.21568 -0.097925 0.40461 0.20497 -0.0033647 -0.3903 -0.58897 0.064967 -0.23393 0.40998 0.31239 0.3113 -1.1197 0.074043 0.54677 0.37252 -0.17621 0.46012 -0.15993 0.73524 0.50571 -0.25545 -0.027585 0.25207 0.37226 0.12577 -0.43865 0.3393 0.10227 -0.15777 0.38538 -0.29571 -0.56603 -0.18468 0.015184 0.39576 -0.22082 0.13828 
TCTGCA 0.27402 -0.73285 -0.063873 -0.34078 0.15941 0.46638 -0.011838 -0.060946 0.60567 0.092931 -0.058187 -0.81326 -0.17916 0.12188 0.40175 -0.030785 -0.41586 -0.71655 0.47481 0.33638 0.2141 0.61243 0.79017 -0.45925 -0.51507 0.42522 0.34735 0.332 -0.0049164 0.19319 0.26713 -0.1708 -0.74772 1.1372 -0.043635 0.19585 0.15179 -0.88309 0.3292 -0.30692 1.2402 0.078332 -0.4936 -0.82992 0.14955 -0.70504 0.35642 0.0030377 -0.77787 0.040127 
TCTTCA 0.11685 0.13296 -0.23767 -0.20723 -0.059485 0.22653 0.15992 -0.42316 -0.85261 0.25588 -0.00056978 0.39656 0.20708 -0.010568 0.35045 0.057715 -1.2133 -0.20047 0.28765 -0.52865 -0.16844 0.42312 -0.033713 -0.35893 0.28445 -0.28741 0.080271 0.055432 0.30597 -0.32854 0.52607 0.32542 -0.40202 -0.26369 0.095627 -0.045337 0.25647 0.32016 0.64429 0.14442 0.015267 0.3813 -0.74276 0.66488 -0.60422 -0.18432 -0.080053 -0.092077 0.039113 -0.3104 
TAAACA 0.25121 0.61961 -0.7085 0.19881 -0.50996 -0.54309 0.95494 0.33914 0.2926 0.48774 -0.013813 0.082827 0.3625 -0.47957 -0.28787 0.41504 -0.44484 0.055441 0.34603 -0.12971 -0.46556 0.2612 0.18398 0.27217 -0.30733 1.0396 0.71659 0.077 0.39616 -0.12336 0.44862 -0.37609 0.58064 -0.033857 0.39706 0.40667 -0.65189 -0.0070798 -0.61724 -0.55596 -1.019 0.44993 0.065811 0.50948 -0.24241 0.39048 -0.3468 0.21308 -0.79568 -0.1459 
TAACCA -0.17077 -0.013801 -0.56348 0.36065 0.67129 0.30149 -0.53469 -0.19977 -1.2847 0.52362 -0.78328 0.18526 0.2525 -0.14654 -0.23814 0.42444 -0.73654 -0.085394 0.65653 0.49055 0.31283 -1.8223 0.018158 0.0056519 -0.16985 -0.87696 1.1325 0.01427 -0.19287 0.5698 0.64199 -0.019516 -0.35616 -0.28723 -0.55038 -0.23203 -0.37438 0.041374 0.073361 -0.24201 -0.36104 -0.72763 0.62115 -1.0472 -0.76598 -1.0049 -0.41393 0.66393 -0.68578 0.52498 
TAAGCA -0.23427 0.75477 -0.30957 -0.12794 0.40645 -0.79063 -0.59268 0.0841 -0.76457 0.2147 -0.53872 -0.18568 -0.34106 -0.49102 -0.3541 -0.22592 -0.39105 -0.37174 -0.01886 0.2792 -0.50375 -0.56097 -0.34611 -0.089581 0.64883 -0.33034 0.038029 -0.79429 0.2473 0.024224 1.2859 -0.42488 0.063517 -0.651 -0.36646 0.17262 -0.19433 -0.069735 -0.73461 -0.0041905 0.06412 0.49247 -0.048915 -0.22192 0.64986 0.12093 -0.60677 -0.73305 -0.4927 -0.73245 
TAATCA -0.44839 -0.41924 -1.1714 -0.32614 0.67713 0.089013 0.485 0.33081 0.5596 -0.12127 0.072516 0.82586 -1.5371 -0.59793 0.65848 0.052822 -0.25964 -0.17831 1.5159 0.094738 -0.13526 -0.35383 0.12658 -0.084452 -0.46496 -0.76528 0.44654 -0.68623 0.84303 -0.64693 -0.0039576 0.18509 0.64749 0.46355 -0.93017 -0.36604 -0.43348 -0.62698 0.3102 0.55366 -0.08017 0.70284 0.40445 -0.4599 -0.030475 -0.096174 0.37719 0.29732 0.0081332 0.38724 
TACACA 1.114 -1.1338 0.41081 0.68495 -0.2657 0.12494 -0.15172 -0.37373 0.46701 0.81383 -0.49217 0.14196 -0.41233 0.0061004 -0.27314 -0.15716 -0.31287 -0.76685 0.50351 -1.1266 -0.40259 0.15651 -0.25617 0.55807 -0.47185 0.30271 -0.71616 -0.18198 0.089837 -0.0091261 0.097062 0.19567 -1.0587 1.3476 0.43481 0.27105 -0.35998 0.52609 0.31561 -1.0755 0.20775 0.077206 0.65368 0.51654 -0.8319 -0.39662 0.68079 -0.15661 0.54625 -0.67718 
TACCCA -0.69641 -0.10462 0.37237 -1.3493 -0.38395 0.47412 -0.45479 0.35359 -0.79519 0.71341 -0.41697 -0.17554 -0.29761 -0.18117 -0.19325 0.10961 -1.0538 -0.09969 -0.039006 0.69658 0.38882 -0.31899 -0.35103 0.79429 0.25096 0.19562 0.25808 0.68775 0.015862 -0.32962 0.39488 -0.12819 0.06833 0.15733 -0.51663 -0.94512 0.22304 -0.69023 0.22546 -0.41881 -0.43194 -0.21612 -0.2072 -0.21441 0.055357 -0.10356 -0.33316 -1.2651 -1.011 0.1432 
TACGCA 0.052122 -0.94437 0.13402 0.39188 -0.75826 0.31332 -0.49506 -0.32207 -0.32083 0.49513 -0.81969 -0.28727 -0.58746 -0.35552 -0.17641 -0.39991 0.57328 -0.79426 0.23825 -0.46912 0.51503 -0.8055 -0.60752 0.48791 0.034749 -0.54775 -0.29891 -0.012061 -0.33276 -0.14508 1.3628 -0.072755 0.63915 -1.4406 0.31412 0.51376 -0.28617 -0.088431 0.45621 -0.232 0.45915 0.15921 -0.40731 -0.16204 0.38829 -0.78508 -0.47203 -0.45528 -0.50524 -0.62954 
TACTCA 0.040854 1.3365 -1.118 0.0045536 -0.14927 -0.76622 -0.21611 -0.48464 -0.74732 1.0558 -0.94648 -0.32086 -0.53214 -0.083171 -0.37642 -0.057038 -0.51943 0.50903 0.41659 -0.41919 -0.20183 -0.11137 -0.13303 -0.27251 -0.28595 -0.21816 0.75782 -0.27789 0.41833 0.38541 0.1672 0.40824 0.63843 0.55437 -0.43468 0.025541 -0.07781 -0.34878 0.11531 0.17048 0.34888 -0.80814 0.20182 0.36677 -0.4042 -0.58249 -0.28038 0.3295 -0.31858 0.52576 
TAGACA 0.38586 -0.077518 -0.15874 -1.2979 0.27126 1.1147 -0.74432 -0.24446 -0.92878 -0.22348 -0.28118 0.17551 0.063616 -0.36366 0.63396 -0.9987 0.49291 -1.1384 -0.18316 0.53229 -0.88818 -0.12578 0.44365 -0.29188 0.16991 -0.85307 1.326 0.28806 -0.42379 0.14693 0.16821 0.47077 0.46287 0.030697 -0.16568 0.11045 -0.36539 0.24391 -0.082827 -0.40071 -0.0057341 0.4997 0.5822 0.25107 -1.0239 -1.2865 0.1993 0.054876 -0.23399 -0.57621 
TAGCCA -0.14194 0.16287 -0.79061 -0.10369 0.061605 0.84584 -0.27186 0.060756 0.50988 1.2732 -0.7401 -0.93088 -0.24421 -0.88966 -0.72714 0.22889 -0.71854 -0.32009 0.95998 -0.12623 0.96074 -0.16863 -0.092035 0.15846 0.27861 -0.25114 0.68075 0.087924 0.2927 -0.25894 0.80779 -0.46662 0.71592 -0.35101 -0.090662 0.061759 -0.33126 0.46369 0.70859 0.27964 0.095933 0.11885 0.2541 -0.45514 -0.47117 0.20217 -0.12498 0.55757 0.40085 -0.097657 
TAGGCA 0.91705 1.3629 0.59793 -0.43338 0.20507 0.83869 -0.68744 0.89164 0.44786 1.3231 -0.44817 -0.87168 0.99963 -1.2362 -0.050343 0.84389 0.2832 -0.41839 0.47371 -1.1821 0.40108 -0.35431 -0.68231 0.5817 -0.19322 0.44573 0.051735 -0.42216 0.0038772 0.348 -0.04402 -1.5723 -0.007339 -0.35714 0.36805 0.35694 0.74812 0.19299 0.8289 -0.37156 0.15862 -0.60703 0.089594 -0.40173 0.68701 -0.81467 -0.25826 0.404 0.51628 -0.58278 
TAGTCA -0.43684 0.43519 -1.171 -0.14318 -1.6371 1.2075 -0.84787 -0.46477 -0.66263 0.5046 -0.39862 -0.24277 -0.48549 -0.59576 0.01927 0.29795 -0.78332 0.58951 0.3542 -0.25412 0.36586 -0.30687 0.97689 -1.1604 0.0085055 -0.028113 -0.83497 1.1978 -0.60924 0.14216 0.20657 -0.26428 0.5509 0.27705 0.054837 0.15275 -0.10442 -0.75457 0.17734 0.2952 -0.5658 -0.26631 -0.31772 -0.078532 -0.13345 0.034466 -0.44522 -0.65936 -0.13803 -0.80012 
TATACA 0.60173 -0.14013 -0.4982 0.37336 0.067473 -0.17527 -0.30363 0.17534 -0.26162 0.68059 0.1992 0.2744 0.18511 0.078623 -0.32199 -0.020652 -0.1908 -0.27742 -0.32819 -1.4001 -0.50586 -0.83776 0.069253 0.98922 0.20991 -0.20743 0.10923 0.46015 -0.87916 -0.076569 0.071405 -0.40607 -0.83942 0.4072 0.19245 0.68731 -0.088165 0.59538 -0.25895 -0.281 -0.1648 -0.24406 -0.25696 -0.12864 0.93073 0.50561 -0.072725 -0.42269 -0.5193 -0.22425 
TATCCA 0.67979 -0.96622 -0.68758 0.48342 -0.37781 -0.36118 0.072187 0.17063 0.32631 -0.10109 -0.41084 -0.34191 0.070313 -0.65646 0.91505 -0.77645 0.43427 0.26568 -0.48875 0.13742 0.084298 0.33423 0.024403 -0.38928 0.5241 0.42767 -0.18261 -0.09523 -0.16739 0.28531 0.47741 -0.021725 0.7793 -0.23047 0.46624 0.49054 0.16087 -0.3172 0.98741 -0.61739 -0.0091108 -0.0428 0.5304 -0.22665 -0.18733 -0.40948 0.049605 -0.54715 -0.089331 0.10993 
TATGCA -0.39373 0.16356 -0.38501 -0.12526 -0.63868 -0.74924 0.49551 -0.20122 0.28743 1.0117 -0.052951 -0.58603 -1.1408 0.21331 -0.39405 0.10675 0.6696 0.41654 0.50257 -0.99116 -0.6379 0.10666 -0.011176 -0.14881 -0.54613 0.075428 0.03843 -0.22413 -0.12687 0.77866 0.55694 0.64036 -0.32217 0.68627 0.658 0.53605 -0.13887 -0.2758 -0.11586 0.041974 0.44737 -0.11858 -0.074635 0.78703 -0.14507 -0.10069 -0.14326 0.041284 -0.13684 -0.19228 
TATTCA 0.4477 0.29908 -0.18807 0.0814 0.12217 -0.17129 0.43752 0.77902 -0.22533 0.31384 -0.26523 0.043717 -0.015376 0.086837 -0.78387 0.4169 -0.47005 0.28883 -0.26491 0.0063798 0.33241 -0.39675 -0.40899 0.68722 -1.1176 -0.016712 1.1315 0.2744 0.46845 -0.70788 0.82143 -0.06933 0.74164 0.37715 -0.068223 -0.17075 0.80326 0.074951 0.191 0.30111 -0.51786 0.051365 -0.29732 -0.079239 0.25865 -0.28657 0.32299 0.39973 -0.15466 -0.19219 
